<?xml version="1.0"?>
<opencv_storage>
<stage5>
  <maxWeakCount>5</maxWeakCount>
  <stageThreshold>-9.2299956083297729e-01</stageThreshold>
  <weakClassifiers>
    <_>
      <internalNodes>
        0 -1 5014 8.0733615905046463e-03</internalNodes>
      <leafValues>
        -4.2148759961128235e-01 6.4556962251663208e-01</leafValues></_>
    <_>
      <internalNodes>
        0 -1 12579 1.3740628492087126e-03</internalNodes>
      <leafValues>
        3.6255031824111938e-01 -6.6729182004928589e-01</leafValues></_>
    <_>
      <internalNodes>
        0 -1 154922 -3.4999087452888489e-02</internalNodes>
      <leafValues>
        4.4231885671615601e-01 -5.1614552736282349e-01</leafValues></_>
    <_>
      <internalNodes>
        0 -1 13315 3.9001402910798788e-04</internalNodes>
      <leafValues>
        3.4074717760086060e-01 -6.7336434125900269e-01</leafValues></_>
    <_>
      <internalNodes>
        0 -1 60329 -1.2641082284972072e-03</internalNodes>
      <leafValues>
        -6.4708775281906128e-01 2.8823247551918030e-01</leafValues></_></weakClassifiers></stage5>
</opencv_storage>
