<?xml version="1.0"?>
<opencv_storage>
<stage4>
  <maxWeakCount>5</maxWeakCount>
  <stageThreshold>-6.7924779653549194e-01</stageThreshold>
  <weakClassifiers>
    <_>
      <internalNodes>
        0 -1 21014 -9.8380101844668388e-03</internalNodes>
      <leafValues>
        7.8947371244430542e-01 -4.8387095332145691e-01</leafValues></_>
    <_>
      <internalNodes>
        0 -1 162325 -4.6943161636590958e-02</internalNodes>
      <leafValues>
        -8.1474173069000244e-01 3.7105780839920044e-01</leafValues></_>
    <_>
      <internalNodes>
        0 -1 161814 -9.3256812542676926e-03</internalNodes>
      <leafValues>
        6.3256865739822388e-01 -4.5894560217857361e-01</leafValues></_>
    <_>
      <internalNodes>
        0 -1 58632 1.5164617449045181e-02</internalNodes>
      <leafValues>
        4.2407575249671936e-01 -6.0961866378784180e-01</leafValues></_>
    <_>
      <internalNodes>
        0 -1 114078 -5.4932693019509315e-03</internalNodes>
      <leafValues>
        6.0075604915618896e-01 -4.3727952241897583e-01</leafValues></_></weakClassifiers></stage4>
</opencv_storage>
