<?xml version="1.0"?>
<opencv_storage>
<stage9>
  <maxWeakCount>5</maxWeakCount>
  <stageThreshold>-6.1012554168701172e-01</stageThreshold>
  <weakClassifiers>
    <_>
      <internalNodes>
        0 -1 161617 -2.0478716120123863e-02</internalNodes>
      <leafValues>
        8.8235294818878174e-01 -3.0201342701911926e-01</leafValues></_>
    <_>
      <internalNodes>
        0 -1 80719 2.0296671427786350e-03</internalNodes>
      <leafValues>
        2.7566975355148315e-01 -8.9090752601623535e-01</leafValues></_>
    <_>
      <internalNodes>
        0 -1 104966 -3.0115263536572456e-02</internalNodes>
      <leafValues>
        -5.2729159593582153e-01 3.4465149044990540e-01</leafValues></_>
    <_>
      <internalNodes>
        0 -1 151873 1.6059039626270533e-03</internalNodes>
      <leafValues>
        2.5095084309577942e-01 -8.6299055814743042e-01</leafValues></_>
    <_>
      <internalNodes>
        0 -1 33167 -2.0113430917263031e-02</internalNodes>
      <leafValues>
        8.6913293600082397e-01 -3.0744117498397827e-01</leafValues></_></weakClassifiers></stage9>
</opencv_storage>
