<?xml version="1.0"?>
<opencv_storage>
<stage15>
  <maxWeakCount>6</maxWeakCount>
  <stageThreshold>-6.0390603542327881e-01</stageThreshold>
  <weakClassifiers>
    <_>
      <internalNodes>
        0 -1 161236 -1.9063444808125496e-02</internalNodes>
      <leafValues>
        3.5714286565780640e-01 -4.5454546809196472e-01</leafValues></_>
    <_>
      <internalNodes>
        0 -1 18267 6.4967526122927666e-04</internalNodes>
      <leafValues>
        -3.4911626577377319e-01 4.2721930146217346e-01</leafValues></_>
    <_>
      <internalNodes>
        0 -1 45803 -8.9610610157251358e-03</internalNodes>
      <leafValues>
        4.5355588197708130e-01 -3.4630686044692993e-01</leafValues></_>
    <_>
      <internalNodes>
        0 -1 1410 6.5406821668148041e-03</internalNodes>
      <leafValues>
        1.3658475875854492e-01 -8.9814954996109009e-01</leafValues></_>
    <_>
      <internalNodes>
        0 -1 13377 -3.0929189175367355e-02</internalNodes>
      <leafValues>
        2.3861280083656311e-01 -7.2353166341781616e-01</leafValues></_>
    <_>
      <internalNodes>
        0 -1 24639 6.6070243716239929e-02</internalNodes>
      <leafValues>
        -4.0595170855522156e-01 4.2834058403968811e-01</leafValues></_></weakClassifiers></stage15>
</opencv_storage>
