<?xml version="1.0"?>
<opencv_storage>
<cascade>
  <stageType>BOOST</stageType>
  <featureType>HAAR</featureType>
  <height>12</height>
  <width>12</width>
  <stageParams>
    <boostType>GAB</boostType>
    <minHitRate>9.9500000476837158e-01</minHitRate>
    <maxFalseAlarm>5.0000000000000000e-01</maxFalseAlarm>
    <weightTrimRate>9.4999999999999996e-01</weightTrimRate>
    <maxDepth>1</maxDepth>
    <maxWeakCount>100</maxWeakCount></stageParams>
  <featureParams>
    <maxCatCount>0</maxCatCount>
    <featSize>1</featSize>
    <mode>BASIC</mode></featureParams>
  <stageNum>15</stageNum>
  <stages>
    <!-- stage 0 -->
    <_>
      <maxWeakCount>3</maxWeakCount>
      <stageThreshold>-1.2509394884109497e+00</stageThreshold>
      <weakClassifiers>
        <_>
          <internalNodes>
            0 -1 70 -4.3512862920761108e-01</internalNodes>
          <leafValues>
            8.4037560224533081e-01 -9.5721924304962158e-01</leafValues></_>
        <_>
          <internalNodes>
            0 -1 125 -5.8874752372503281e-02</internalNodes>
          <leafValues>
            6.5439289808273315e-01 -7.6831090450286865e-01</leafValues></_>
        <_>
          <internalNodes>
            0 -1 64 -1.1694580316543579e-01</internalNodes>
          <leafValues>
            4.7459059953689575e-01 -8.9345860481262207e-01</leafValues></_></weakClassifiers></_>
    <!-- stage 1 -->
    <_>
      <maxWeakCount>5</maxWeakCount>
      <stageThreshold>-1.1657242774963379e+00</stageThreshold>
      <weakClassifiers>
        <_>
          <internalNodes>
            0 -1 14 7.6734781265258789e-02</internalNodes>
          <leafValues>
            -7.3459714651107788e-01 8.2010579109191895e-01</leafValues></_>
        <_>
          <internalNodes>
            0 -1 105 -9.6422180533409119e-02</internalNodes>
          <leafValues>
            7.0164579153060913e-01 -6.4103382825851440e-01</leafValues></_>
        <_>
          <internalNodes>
            0 -1 34 8.1042587757110596e-02</internalNodes>
          <leafValues>
            -5.0190520286560059e-01 5.4759413003921509e-01</leafValues></_>
        <_>
          <internalNodes>
            0 -1 91 -2.3217953741550446e-02</internalNodes>
          <leafValues>
            4.5830047130584717e-01 -6.0844928026199341e-01</leafValues></_>
        <_>
          <internalNodes>
            0 -1 120 -3.3788091968744993e-03</internalNodes>
          <leafValues>
            -7.5110620260238647e-01 2.7076184749603271e-01</leafValues></_></weakClassifiers></_>
    <!-- stage 2 -->
    <_>
      <maxWeakCount>6</maxWeakCount>
      <stageThreshold>-1.3923771381378174e+00</stageThreshold>
      <weakClassifiers>
        <_>
          <internalNodes>
            0 -1 28 4.6823747456073761e-02</internalNodes>
          <leafValues>
            -6.3207548856735229e-01 7.1276593208312988e-01</leafValues></_>
        <_>
          <internalNodes>
            0 -1 130 -3.4684009850025177e-02</internalNodes>
          <leafValues>
            6.8741184473037720e-01 -5.9345459938049316e-01</leafValues></_>
        <_>
          <internalNodes>
            0 -1 15 -6.6665317863225937e-03</internalNodes>
          <leafValues>
            -7.6508772373199463e-01 2.9693606495857239e-01</leafValues></_>
        <_>
          <internalNodes>
            0 -1 111 -2.0492397248744965e-02</internalNodes>
          <leafValues>
            3.9667025208473206e-01 -6.1196237802505493e-01</leafValues></_>
        <_>
          <internalNodes>
            0 -1 30 6.9899270310997963e-03</internalNodes>
          <leafValues>
            -6.1528766155242920e-01 3.6344850063323975e-01</leafValues></_>
        <_>
          <internalNodes>
            0 -1 73 -5.7750783860683441e-02</internalNodes>
          <leafValues>
            4.4713696837425232e-01 -4.6400836110115051e-01</leafValues></_></weakClassifiers></_>
    <!-- stage 3 -->
    <_>
      <maxWeakCount>7</maxWeakCount>
      <stageThreshold>-8.3513653278350830e-01</stageThreshold>
      <weakClassifiers>
        <_>
          <internalNodes>
            0 -1 14 1.6451701521873474e-01</internalNodes>
          <leafValues>
            -4.5454546809196472e-01 7.8231292963027954e-01</leafValues></_>
        <_>
          <internalNodes>
            0 -1 129 -6.2728807330131531e-02</internalNodes>
          <leafValues>
            5.8901387453079224e-01 -5.5294209718704224e-01</leafValues></_>
        <_>
          <internalNodes>
            0 -1 12 -4.1630360484123230e-01</internalNodes>
          <leafValues>
            -7.4748855829238892e-01 2.4754968285560608e-01</leafValues></_>
        <_>
          <internalNodes>
            0 -1 13 2.7023874223232269e-02</internalNodes>
          <leafValues>
            -6.0407173633575439e-01 3.3034455776214600e-01</leafValues></_>
        <_>
          <internalNodes>
            0 -1 108 -1.1429462581872940e-02</internalNodes>
          <leafValues>
            2.0728027820587158e-01 -7.0399087667465210e-01</leafValues></_>
        <_>
          <internalNodes>
            0 -1 11 4.3093687295913696e-01</internalNodes>
          <leafValues>
            -3.0396276712417603e-01 7.8199100494384766e-01</leafValues></_>
        <_>
          <internalNodes>
            0 -1 17 -8.2388378679752350e-02</internalNodes>
          <leafValues>
            6.2555557489395142e-01 -2.4741289019584656e-01</leafValues></_></weakClassifiers></_>
    <!-- stage 4 -->
    <_>
      <maxWeakCount>9</maxWeakCount>
      <stageThreshold>-1.0378942489624023e+00</stageThreshold>
      <weakClassifiers>
        <_>
          <internalNodes>
            0 -1 28 5.4992403835058212e-02</internalNodes>
          <leafValues>
            -5.5868542194366455e-01 6.3636362552642822e-01</leafValues></_>
        <_>
          <internalNodes>
            0 -1 134 -4.2113125324249268e-02</internalNodes>
          <leafValues>
            6.3058871030807495e-01 -3.8955330848693848e-01</leafValues></_>
        <_>
          <internalNodes>
            0 -1 57 5.2759785205125809e-02</internalNodes>
          <leafValues>
            -2.2524560987949371e-01 7.7999186515808105e-01</leafValues></_>
        <_>
          <internalNodes>
            0 -1 35 -4.2502155900001526e-01</internalNodes>
          <leafValues>
            -2.6889404654502869e-01 6.1744427680969238e-01</leafValues></_>
        <_>
          <internalNodes>
            0 -1 65 -5.5619901977479458e-03</internalNodes>
          <leafValues>
            5.4453504085540771e-01 -3.2755964994430542e-01</leafValues></_>
        <_>
          <internalNodes>
            0 -1 25 5.2390515804290771e-02</internalNodes>
          <leafValues>
            -2.2926138341426849e-01 7.2039252519607544e-01</leafValues></_>
        <_>
          <internalNodes>
            0 -1 78 7.6215271838009357e-03</internalNodes>
          <leafValues>
            1.7658026516437531e-01 -9.2452389001846313e-01</leafValues></_>
        <_>
          <internalNodes>
            0 -1 104 -8.4112003445625305e-02</internalNodes>
          <leafValues>
            8.6310911178588867e-01 -1.8804164230823517e-01</leafValues></_>
        <_>
          <internalNodes>
            0 -1 82 3.9064653217792511e-02</internalNodes>
          <leafValues>
            -2.2228251397609711e-01 5.8135008811950684e-01</leafValues></_></weakClassifiers></_>
    <!-- stage 5 -->
    <_>
      <maxWeakCount>9</maxWeakCount>
      <stageThreshold>-1.2184281349182129e+00</stageThreshold>
      <weakClassifiers>
        <_>
          <internalNodes>
            0 -1 122 -1.3444915413856506e-01</internalNodes>
          <leafValues>
            6.2874251604080200e-01 -4.5064377784729004e-01</leafValues></_>
        <_>
          <internalNodes>
            0 -1 1 4.6974796801805496e-02</internalNodes>
          <leafValues>
            -2.1478909254074097e-01 8.0562824010848999e-01</leafValues></_>
        <_>
          <internalNodes>
            0 -1 50 -2.9448324441909790e-01</internalNodes>
          <leafValues>
            -4.6118474006652832e-01 5.6449633836746216e-01</leafValues></_>
        <_>
          <internalNodes>
            0 -1 44 3.5377569496631622e-02</internalNodes>
          <leafValues>
            -1.5287476778030396e-01 8.5905194282531738e-01</leafValues></_>
        <_>
          <internalNodes>
            0 -1 133 -1.3561469316482544e-01</internalNodes>
          <leafValues>
            8.1187695264816284e-01 -1.5329857170581818e-01</leafValues></_>
        <_>
          <internalNodes>
            0 -1 18 -4.0596333146095276e-01</internalNodes>
          <leafValues>
            -7.3927247524261475e-01 2.1914312243461609e-01</leafValues></_>
        <_>
          <internalNodes>
            0 -1 93 -5.7918176054954529e-02</internalNodes>
          <leafValues>
            6.5265035629272461e-01 -2.3390632867813110e-01</leafValues></_>
        <_>
          <internalNodes>
            0 -1 115 2.0819202065467834e-02</internalNodes>
          <leafValues>
            -3.0173897743225098e-01 5.0867164134979248e-01</leafValues></_>
        <_>
          <internalNodes>
            0 -1 55 -2.1395523101091385e-02</internalNodes>
          <leafValues>
            4.7366943955421448e-01 -3.5569170117378235e-01</leafValues></_></weakClassifiers></_>
    <!-- stage 6 -->
    <_>
      <maxWeakCount>9</maxWeakCount>
      <stageThreshold>-8.6035394668579102e-01</stageThreshold>
      <weakClassifiers>
        <_>
          <internalNodes>
            0 -1 37 1.8022026866674423e-02</internalNodes>
          <leafValues>
            -6.4285713434219360e-01 4.6551725268363953e-01</leafValues></_>
        <_>
          <internalNodes>
            0 -1 127 -3.8642600178718567e-02</internalNodes>
          <leafValues>
            3.2954227924346924e-01 -6.6848278045654297e-01</leafValues></_>
        <_>
          <internalNodes>
            0 -1 95 -3.9440163969993591e-01</internalNodes>
          <leafValues>
            1.5945674479007721e-01 -9.5720154047012329e-01</leafValues></_>
        <_>
          <internalNodes>
            0 -1 16 2.1692393720149994e-01</internalNodes>
          <leafValues>
            -2.3332525789737701e-01 8.2029181718826294e-01</leafValues></_>
        <_>
          <internalNodes>
            0 -1 14 2.9797349125146866e-02</internalNodes>
          <leafValues>
            -5.4934573173522949e-01 2.1224254369735718e-01</leafValues></_>
        <_>
          <internalNodes>
            0 -1 101 -1.1774644255638123e-01</internalNodes>
          <leafValues>
            3.4418085217475891e-01 -5.9841036796569824e-01</leafValues></_>
        <_>
          <internalNodes>
            0 -1 71 3.8627344183623791e-03</internalNodes>
          <leafValues>
            1.4844425022602081e-01 -7.3756957054138184e-01</leafValues></_>
        <_>
          <internalNodes>
            0 -1 99 -2.1145665959920734e-04</internalNodes>
          <leafValues>
            4.2704874277114868e-01 -3.4816154837608337e-01</leafValues></_>
        <_>
          <internalNodes>
            0 -1 39 -4.8638219013810158e-03</internalNodes>
          <leafValues>
            -8.5422140359878540e-01 1.5452636778354645e-01</leafValues></_></weakClassifiers></_>
    <!-- stage 7 -->
    <_>
      <maxWeakCount>13</maxWeakCount>
      <stageThreshold>-9.0065419673919678e-01</stageThreshold>
      <weakClassifiers>
        <_>
          <internalNodes>
            0 -1 23 3.7945717573165894e-02</internalNodes>
          <leafValues>
            -6.9491523504257202e-01 2.9078012704849243e-01</leafValues></_>
        <_>
          <internalNodes>
            0 -1 112 -1.5571416355669498e-02</internalNodes>
          <leafValues>
            2.8286376595497131e-01 -5.7561939954757690e-01</leafValues></_>
        <_>
          <internalNodes>
            0 -1 97 1.6636554151773453e-02</internalNodes>
          <leafValues>
            -2.5300106406211853e-01 6.6325670480728149e-01</leafValues></_>
        <_>
          <internalNodes>
            0 -1 120 2.3236879496835172e-04</internalNodes>
          <leafValues>
            -4.0267121791839600e-01 3.3141255378723145e-01</leafValues></_>
        <_>
          <internalNodes>
            0 -1 48 2.0800385624170303e-02</internalNodes>
          <leafValues>
            -1.8483620882034302e-01 8.0871915817260742e-01</leafValues></_>
        <_>
          <internalNodes>
            0 -1 139 -1.0887922346591949e-01</internalNodes>
          <leafValues>
            -5.2481907606124878e-01 3.5267823934555054e-01</leafValues></_>
        <_>
          <internalNodes>
            0 -1 87 1.2642921879887581e-02</internalNodes>
          <leafValues>
            -3.6901494860649109e-01 3.9731875061988831e-01</leafValues></_>
        <_>
          <internalNodes>
            0 -1 54 1.5408685430884361e-02</internalNodes>
          <leafValues>
            -3.1372085213661194e-01 3.4856382012367249e-01</leafValues></_>
        <_>
          <internalNodes>
            0 -1 8 2.0247663557529449e-01</internalNodes>
          <leafValues>
            -2.4960933625698090e-01 4.9534672498703003e-01</leafValues></_>
        <_>
          <internalNodes>
            0 -1 100 -8.3777606487274170e-02</internalNodes>
          <leafValues>
            3.7490686774253845e-01 -3.5993501543998718e-01</leafValues></_>
        <_>
          <internalNodes>
            0 -1 27 -8.7284389883279800e-03</internalNodes>
          <leafValues>
            6.4051872491836548e-01 -2.0209771394729614e-01</leafValues></_>
        <_>
          <internalNodes>
            0 -1 45 -2.8189931064844131e-02</internalNodes>
          <leafValues>
            5.3173059225082397e-01 -1.9661252200603485e-01</leafValues></_>
        <_>
          <internalNodes>
            0 -1 113 -9.4729632837697864e-04</internalNodes>
          <leafValues>
            -2.9183819890022278e-01 4.2068052291870117e-01</leafValues></_></weakClassifiers></_>
    <!-- stage 8 -->
    <_>
      <maxWeakCount>9</maxWeakCount>
      <stageThreshold>-1.0451518297195435e+00</stageThreshold>
      <weakClassifiers>
        <_>
          <internalNodes>
            0 -1 32 -1.5185413882136345e-02</internalNodes>
          <leafValues>
            6.2121212482452393e-01 -3.0597016215324402e-01</leafValues></_>
        <_>
          <internalNodes>
            0 -1 18 -4.8564520478248596e-01</internalNodes>
          <leafValues>
            -7.0275521278381348e-01 2.3689842224121094e-01</leafValues></_>
        <_>
          <internalNodes>
            0 -1 131 -2.6563767343759537e-02</internalNodes>
          <leafValues>
            4.5663651823997498e-01 -3.6874490976333618e-01</leafValues></_>
        <_>
          <internalNodes>
            0 -1 8 7.4263639748096466e-02</internalNodes>
          <leafValues>
            -4.5867726206779480e-01 2.5063678622245789e-01</leafValues></_>
        <_>
          <internalNodes>
            0 -1 47 1.1073677241802216e-01</internalNodes>
          <leafValues>
            -1.7456705868244171e-01 8.9700120687484741e-01</leafValues></_>
        <_>
          <internalNodes>
            0 -1 123 -2.4989958852529526e-02</internalNodes>
          <leafValues>
            2.9434493184089661e-01 -4.2542338371276855e-01</leafValues></_>
        <_>
          <internalNodes>
            0 -1 85 3.2631482928991318e-02</internalNodes>
          <leafValues>
            -1.9938263297080994e-01 7.3027479648590088e-01</leafValues></_>
        <_>
          <internalNodes>
            0 -1 0 3.0744946561753750e-03</internalNodes>
          <leafValues>
            2.0267516374588013e-01 -7.3430114984512329e-01</leafValues></_>
        <_>
          <internalNodes>
            0 -1 68 -3.6506764590740204e-02</internalNodes>
          <leafValues>
            4.4803991913795471e-01 -3.0858960747718811e-01</leafValues></_></weakClassifiers></_>
    <!-- stage 9 -->
    <_>
      <maxWeakCount>11</maxWeakCount>
      <stageThreshold>-8.1651031970977783e-01</stageThreshold>
      <weakClassifiers>
        <_>
          <internalNodes>
            0 -1 132 -6.0051426291465759e-02</internalNodes>
          <leafValues>
            5.4491019248962402e-01 -3.9055794477462769e-01</leafValues></_>
        <_>
          <internalNodes>
            0 -1 31 5.2571114152669907e-02</internalNodes>
          <leafValues>
            -4.1219094395637512e-01 4.1259646415710449e-01</leafValues></_>
        <_>
          <internalNodes>
            0 -1 140 2.3040170781314373e-03</internalNodes>
          <leafValues>
            2.2285814583301544e-01 -6.6932094097137451e-01</leafValues></_>
        <_>
          <internalNodes>
            0 -1 56 1.0842412710189819e-02</internalNodes>
          <leafValues>
            2.4621999263763428e-01 -6.1871618032455444e-01</leafValues></_>
        <_>
          <internalNodes>
            0 -1 52 -8.0395648255944252e-03</internalNodes>
          <leafValues>
            -7.0019870996475220e-01 1.3833421468734741e-01</leafValues></_>
        <_>
          <internalNodes>
            0 -1 89 -6.3420771621167660e-03</internalNodes>
          <leafValues>
            -6.8232154846191406e-01 1.6141831874847412e-01</leafValues></_>
        <_>
          <internalNodes>
            0 -1 5 -2.9889795184135437e-01</internalNodes>
          <leafValues>
            7.2574478387832642e-01 -1.6908566653728485e-01</leafValues></_>
        <_>
          <internalNodes>
            0 -1 72 2.9065003618597984e-03</internalNodes>
          <leafValues>
            2.0891319215297699e-01 -5.4757499694824219e-01</leafValues></_>
        <_>
          <internalNodes>
            0 -1 63 1.4885138720273972e-02</internalNodes>
          <leafValues>
            -2.4026779830455780e-01 5.3703415393829346e-01</leafValues></_>
        <_>
          <internalNodes>
            0 -1 53 -1.1825727298855782e-02</internalNodes>
          <leafValues>
            -6.0209530591964722e-01 2.5966718792915344e-01</leafValues></_>
        <_>
          <internalNodes>
            0 -1 77 7.4731456115841866e-03</internalNodes>
          <leafValues>
            1.0757772624492645e-01 -8.3418685197830200e-01</leafValues></_></weakClassifiers></_>
    <!-- stage 10 -->
    <_>
      <maxWeakCount>12</maxWeakCount>
      <stageThreshold>-9.2219859361648560e-01</stageThreshold>
      <weakClassifiers>
        <_>
          <internalNodes>
            0 -1 2 1.0964237153530121e-01</internalNodes>
          <leafValues>
            -4.9367088079452515e-01 3.2231405377388000e-01</leafValues></_>
        <_>
          <internalNodes>
            0 -1 126 -4.9118194729089737e-02</internalNodes>
          <leafValues>
            2.4930654466152191e-01 -4.3379884958267212e-01</leafValues></_>
        <_>
          <internalNodes>
            0 -1 10 -6.8973153829574585e-03</internalNodes>
          <leafValues>
            -6.8253695964813232e-01 1.9095602631568909e-01</leafValues></_>
        <_>
          <internalNodes>
            0 -1 74 3.8442820310592651e-02</internalNodes>
          <leafValues>
            -1.8819329142570496e-01 5.8763492107391357e-01</leafValues></_>
        <_>
          <internalNodes>
            0 -1 75 -8.9787831529974937e-04</internalNodes>
          <leafValues>
            3.9373850822448730e-01 -3.2266536355018616e-01</leafValues></_>
        <_>
          <internalNodes>
            0 -1 40 -1.1955570429563522e-02</internalNodes>
          <leafValues>
            -6.3935917615890503e-01 1.4936408400535583e-01</leafValues></_>
        <_>
          <internalNodes>
            0 -1 109 -2.7840244583785534e-03</internalNodes>
          <leafValues>
            2.9640272259712219e-01 -3.2420849800109863e-01</leafValues></_>
        <_>
          <internalNodes>
            0 -1 4 5.0162700936198235e-03</internalNodes>
          <leafValues>
            -5.5205208063125610e-01 1.3538978993892670e-01</leafValues></_>
        <_>
          <internalNodes>
            0 -1 80 1.3334390241652727e-03</internalNodes>
          <leafValues>
            2.0719921588897705e-01 -4.1894480586051941e-01</leafValues></_>
        <_>
          <internalNodes>
            0 -1 103 -4.1623812168836594e-02</internalNodes>
          <leafValues>
            3.4826934337615967e-01 -2.4301742017269135e-01</leafValues></_>
        <_>
          <internalNodes>
            0 -1 9 8.7562175467610359e-03</internalNodes>
          <leafValues>
            1.1897268146276474e-01 -8.2326066493988037e-01</leafValues></_>
        <_>
          <internalNodes>
            0 -1 83 6.4518272876739502e-02</internalNodes>
          <leafValues>
            1.3178971409797668e-01 -5.9397733211517334e-01</leafValues></_></weakClassifiers></_>
    <!-- stage 11 -->
    <_>
      <maxWeakCount>11</maxWeakCount>
      <stageThreshold>-9.1012614965438843e-01</stageThreshold>
      <weakClassifiers>
        <_>
          <internalNodes>
            0 -1 124 -4.9176339060068130e-02</internalNodes>
          <leafValues>
            2.3711340129375458e-01 -6.3302749395370483e-01</leafValues></_>
        <_>
          <internalNodes>
            0 -1 20 2.0608347654342651e-01</internalNodes>
          <leafValues>
            -2.4448484182357788e-01 4.9489244818687439e-01</leafValues></_>
        <_>
          <internalNodes>
            0 -1 12 -6.7036664485931396e-01</internalNodes>
          <leafValues>
            -8.6729460954666138e-01 1.3585634529590607e-01</leafValues></_>
        <_>
          <internalNodes>
            0 -1 7 -3.5064178705215454e-01</internalNodes>
          <leafValues>
            1.2277932465076447e-01 -9.4221484661102295e-01</leafValues></_>
        <_>
          <internalNodes>
            0 -1 137 2.7544947806745768e-03</internalNodes>
          <leafValues>
            9.3611977994441986e-02 -6.4124828577041626e-01</leafValues></_>
        <_>
          <internalNodes>
            0 -1 102 -7.8231077641248703e-03</internalNodes>
          <leafValues>
            -7.4094146490097046e-01 1.4448705315589905e-01</leafValues></_>
        <_>
          <internalNodes>
            0 -1 114 7.1861064061522484e-03</internalNodes>
          <leafValues>
            -1.8921485543251038e-01 6.7389982938766479e-01</leafValues></_>
        <_>
          <internalNodes>
            0 -1 38 -2.0225074887275696e-01</internalNodes>
          <leafValues>
            -4.0154615044593811e-01 2.3974019289016724e-01</leafValues></_>
        <_>
          <internalNodes>
            0 -1 43 -4.7933291643857956e-03</internalNodes>
          <leafValues>
            4.8790192604064941e-01 -2.2359728813171387e-01</leafValues></_>
        <_>
          <internalNodes>
            0 -1 119 -4.0000360459089279e-03</internalNodes>
          <leafValues>
            -1.7178399860858917e-01 4.7191712260246277e-01</leafValues></_>
        <_>
          <internalNodes>
            0 -1 61 -4.2823299765586853e-02</internalNodes>
          <leafValues>
            5.6561088562011719e-01 -1.8449252843856812e-01</leafValues></_></weakClassifiers></_>
    <!-- stage 12 -->
    <_>
      <maxWeakCount>14</maxWeakCount>
      <stageThreshold>-1.0256512165069580e+00</stageThreshold>
      <weakClassifiers>
        <_>
          <internalNodes>
            0 -1 24 5.2733123302459717e-02</internalNodes>
          <leafValues>
            -2.5373134016990662e-01 5.1515150070190430e-01</leafValues></_>
        <_>
          <internalNodes>
            0 -1 41 3.0353629961609840e-02</internalNodes>
          <leafValues>
            -2.3356018960475922e-01 4.5394390821456909e-01</leafValues></_>
        <_>
          <internalNodes>
            0 -1 118 -1.6897968947887421e-02</internalNodes>
          <leafValues>
            5.8267599344253540e-01 -1.4987625181674957e-01</leafValues></_>
        <_>
          <internalNodes>
            0 -1 110 -6.2332011759281158e-02</internalNodes>
          <leafValues>
            8.8196396827697754e-01 -1.1717432737350464e-01</leafValues></_>
        <_>
          <internalNodes>
            0 -1 33 8.5554748773574829e-02</internalNodes>
          <leafValues>
            -3.2447415590286255e-01 2.8906163573265076e-01</leafValues></_>
        <_>
          <internalNodes>
            0 -1 49 -1.7596844583749771e-02</internalNodes>
          <leafValues>
            7.4684059619903564e-01 -1.1078746616840363e-01</leafValues></_>
        <_>
          <internalNodes>
            0 -1 96 -1.3150912523269653e-01</internalNodes>
          <leafValues>
            -7.9004183411598206e-02 7.4145185947418213e-01</leafValues></_>
        <_>
          <internalNodes>
            0 -1 26 -5.9415660798549652e-02</internalNodes>
          <leafValues>
            3.9702287316322327e-01 -2.0583710074424744e-01</leafValues></_>
        <_>
          <internalNodes>
            0 -1 136 -6.4009159803390503e-02</internalNodes>
          <leafValues>
            4.6530327200889587e-01 -1.5679785609245300e-01</leafValues></_>
        <_>
          <internalNodes>
            0 -1 128 1.7729867249727249e-02</internalNodes>
          <leafValues>
            -1.2284214794635773e-01 7.6254415512084961e-01</leafValues></_>
        <_>
          <internalNodes>
            0 -1 98 2.3450497537851334e-02</internalNodes>
          <leafValues>
            -1.4800287783145905e-01 6.1213940382003784e-01</leafValues></_>
        <_>
          <internalNodes>
            0 -1 107 8.4596611559391022e-03</internalNodes>
          <leafValues>
            -1.5909497439861298e-01 4.7061559557914734e-01</leafValues></_>
        <_>
          <internalNodes>
            0 -1 138 2.9155607335269451e-03</internalNodes>
          <leafValues>
            1.7683629691600800e-01 -6.4159089326858521e-01</leafValues></_>
        <_>
          <internalNodes>
            0 -1 79 -1.2249585241079330e-02</internalNodes>
          <leafValues>
            -6.4184379577636719e-01 9.8553106188774109e-02</leafValues></_></weakClassifiers></_>
    <!-- stage 13 -->
    <_>
      <maxWeakCount>16</maxWeakCount>
      <stageThreshold>-7.4536699056625366e-01</stageThreshold>
      <weakClassifiers>
        <_>
          <internalNodes>
            0 -1 6 7.0727601647377014e-02</internalNodes>
          <leafValues>
            -4.8437500000000000e-01 2.2794117033481598e-01</leafValues></_>
        <_>
          <internalNodes>
            0 -1 116 3.3441889099776745e-03</internalNodes>
          <leafValues>
            -1.4196969568729401e-01 6.1816990375518799e-01</leafValues></_>
        <_>
          <internalNodes>
            0 -1 67 -3.4056538715958595e-03</internalNodes>
          <leafValues>
            4.5255771279335022e-01 -1.5777780115604401e-01</leafValues></_>
        <_>
          <internalNodes>
            0 -1 46 1.1546729132533073e-02</internalNodes>
          <leafValues>
            -1.5910547971725464e-01 4.3752914667129517e-01</leafValues></_>
        <_>
          <internalNodes>
            0 -1 121 -5.7040460407733917e-02</internalNodes>
          <leafValues>
            1.5109464526176453e-01 -4.7587364912033081e-01</leafValues></_>
        <_>
          <internalNodes>
            0 -1 69 6.5071940422058105e-02</internalNodes>
          <leafValues>
            -1.0149145871400833e-01 7.9915624856948853e-01</leafValues></_>
        <_>
          <internalNodes>
            0 -1 52 -8.6667668074369431e-03</internalNodes>
          <leafValues>
            -6.3924425840377808e-01 1.4265197515487671e-01</leafValues></_>
        <_>
          <internalNodes>
            0 -1 36 1.1933229397982359e-03</internalNodes>
          <leafValues>
            1.9102558493614197e-01 -4.3194565176963806e-01</leafValues></_>
        <_>
          <internalNodes>
            0 -1 59 -2.0027376711368561e-02</internalNodes>
          <leafValues>
            3.6265623569488525e-01 -2.2357746958732605e-01</leafValues></_>
        <_>
          <internalNodes>
            0 -1 88 -7.1207489818334579e-03</internalNodes>
          <leafValues>
            -9.4449335336685181e-01 9.6011169254779816e-02</leafValues></_>
        <_>
          <internalNodes>
            0 -1 76 8.1205829977989197e-02</internalNodes>
          <leafValues>
            -1.3569083809852600e-01 9.1191667318344116e-01</leafValues></_>
        <_>
          <internalNodes>
            0 -1 135 -1.1749742552638054e-03</internalNodes>
          <leafValues>
            3.4131219983100891e-01 -2.2319106757640839e-01</leafValues></_>
        <_>
          <internalNodes>
            0 -1 117 3.7678135558962822e-03</internalNodes>
          <leafValues>
            -2.6060032844543457e-01 4.2728993296623230e-01</leafValues></_>
        <_>
          <internalNodes>
            0 -1 51 -5.5378940887749195e-03</internalNodes>
          <leafValues>
            7.2515857219696045e-01 -9.4402708113193512e-02</leafValues></_>
        <_>
          <internalNodes>
            0 -1 22 2.4592907726764679e-01</internalNodes>
          <leafValues>
            -2.6367616653442383e-01 3.6416676640510559e-01</leafValues></_>
        <_>
          <internalNodes>
            0 -1 58 -1.0093490593135357e-02</internalNodes>
          <leafValues>
            4.0672048926353455e-01 -2.3001852631568909e-01</leafValues></_></weakClassifiers></_>
    <!-- stage 14 -->
    <_>
      <maxWeakCount>16</maxWeakCount>
      <stageThreshold>-8.4466624259948730e-01</stageThreshold>
      <weakClassifiers>
        <_>
          <internalNodes>
            0 -1 94 -6.8402603268623352e-02</internalNodes>
          <leafValues>
            3.8853502273559570e-01 -2.5102880597114563e-01</leafValues></_>
        <_>
          <internalNodes>
            0 -1 86 5.6355148553848267e-02</internalNodes>
          <leafValues>
            -1.1024186015129089e-01 8.3224517107009888e-01</leafValues></_>
        <_>
          <internalNodes>
            0 -1 21 -4.3073529005050659e-01</internalNodes>
          <leafValues>
            7.2860911488533020e-02 -8.7711936235427856e-01</leafValues></_>
        <_>
          <internalNodes>
            0 -1 3 9.9973842501640320e-02</internalNodes>
          <leafValues>
            -5.3038752079010010e-01 2.2226640582084656e-01</leafValues></_>
        <_>
          <internalNodes>
            0 -1 60 -1.8493088483810425e+00</internalNodes>
          <leafValues>
            -1.4413297176361084e-01 6.5512079000473022e-01</leafValues></_>
        <_>
          <internalNodes>
            0 -1 112 -1.4847556129097939e-02</internalNodes>
          <leafValues>
            1.2080401927232742e-01 -5.9200996160507202e-01</leafValues></_>
        <_>
          <internalNodes>
            0 -1 106 1.3980785384774208e-02</internalNodes>
          <leafValues>
            -1.6432186961174011e-01 5.0772899389266968e-01</leafValues></_>
        <_>
          <internalNodes>
            0 -1 90 -3.6428490281105042e-01</internalNodes>
          <leafValues>
            -7.0791065692901611e-01 1.1104649305343628e-01</leafValues></_>
        <_>
          <internalNodes>
            0 -1 19 -2.1623403299599886e-03</internalNodes>
          <leafValues>
            2.4477383494377136e-01 -3.2451295852661133e-01</leafValues></_>
        <_>
          <internalNodes>
            0 -1 29 -1.8171700835227966e-01</internalNodes>
          <leafValues>
            -9.3251377344131470e-01 1.0021070390939713e-01</leafValues></_>
        <_>
          <internalNodes>
            0 -1 84 2.4966640397906303e-02</internalNodes>
          <leafValues>
            -1.6536214947700500e-01 5.2613705396652222e-01</leafValues></_>
        <_>
          <internalNodes>
            0 -1 92 2.8683986514806747e-02</internalNodes>
          <leafValues>
            1.3791631162166595e-01 -6.9154244661331177e-01</leafValues></_>
        <_>
          <internalNodes>
            0 -1 81 -1.0415682569146156e-02</internalNodes>
          <leafValues>
            -6.1664515733718872e-01 1.1457207798957825e-01</leafValues></_>
        <_>
          <internalNodes>
            0 -1 42 -2.2918712347745895e-02</internalNodes>
          <leafValues>
            7.0265078544616699e-01 -1.3944779336452484e-01</leafValues></_>
        <_>
          <internalNodes>
            0 -1 66 5.7632154785096645e-03</internalNodes>
          <leafValues>
            -1.6529212892055511e-01 5.4859930276870728e-01</leafValues></_>
        <_>
          <internalNodes>
            0 -1 62 -7.8158527612686157e-03</internalNodes>
          <leafValues>
            3.3210268616676331e-01 -2.2124013304710388e-01</leafValues></_></weakClassifiers></_></stages>
  <features>
    <_>
      <rects>
        <_>
          0 0 1 2 -1.</_>
        <_>
          0 1 1 1 2.</_></rects>
      <tilted>0</tilted></_>
    <_>
      <rects>
        <_>
          0 0 2 12 -1.</_>
        <_>
          0 0 1 6 2.</_>
        <_>
          1 6 1 6 2.</_></rects>
      <tilted>0</tilted></_>
    <_>
      <rects>
        <_>
          0 0 2 11 -1.</_>
        <_>
          1 0 1 11 2.</_></rects>
      <tilted>0</tilted></_>
    <_>
      <rects>
        <_>
          0 0 4 12 -1.</_>
        <_>
          2 0 2 12 2.</_></rects>
      <tilted>0</tilted></_>
    <_>
      <rects>
        <_>
          0 0 6 7 -1.</_>
        <_>
          3 0 3 7 2.</_></rects>
      <tilted>0</tilted></_>
    <_>
      <rects>
        <_>
          0 0 12 12 -1.</_>
        <_>
          0 6 12 6 2.</_></rects>
      <tilted>0</tilted></_>
    <_>
      <rects>
        <_>
          0 1 2 8 -1.</_>
        <_>
          1 1 1 8 2.</_></rects>
      <tilted>0</tilted></_>
    <_>
      <rects>
        <_>
          0 1 3 8 -1.</_>
        <_>
          1 1 1 8 2.</_></rects>
      <tilted>0</tilted></_>
    <_>
      <rects>
        <_>
          0 1 2 11 -1.</_>
        <_>
          1 1 1 11 2.</_></rects>
      <tilted>0</tilted></_>
    <_>
      <rects>
        <_>
          0 1 2 2 -1.</_>
        <_>
          0 2 2 1 2.</_></rects>
      <tilted>0</tilted></_>
    <_>
      <rects>
        <_>
          0 1 4 2 -1.</_>
        <_>
          0 2 4 1 2.</_></rects>
      <tilted>0</tilted></_>
    <_>
      <rects>
        <_>
          0 1 12 10 -1.</_>
        <_>
          0 6 12 5 2.</_></rects>
      <tilted>0</tilted></_>
    <_>
      <rects>
        <_>
          0 2 1 9 -1.</_>
        <_>
          0 5 1 3 2.</_></rects>
      <tilted>0</tilted></_>
    <_>
      <rects>
        <_>
          0 2 2 9 -1.</_>
        <_>
          1 2 1 9 2.</_></rects>
      <tilted>0</tilted></_>
    <_>
      <rects>
        <_>
          0 2 2 10 -1.</_>
        <_>
          1 2 1 10 2.</_></rects>
      <tilted>0</tilted></_>
    <_>
      <rects>
        <_>
          0 2 4 5 -1.</_>
        <_>
          2 2 2 5 2.</_></rects>
      <tilted>0</tilted></_>
    <_>
      <rects>
        <_>
          0 2 10 8 -1.</_>
        <_>
          0 6 10 4 2.</_></rects>
      <tilted>0</tilted></_>
    <_>
      <rects>
        <_>
          0 2 12 10 -1.</_>
        <_>
          0 7 12 5 2.</_></rects>
      <tilted>0</tilted></_>
    <_>
      <rects>
        <_>
          0 3 1 9 -1.</_>
        <_>
          0 6 1 3 2.</_></rects>
      <tilted>0</tilted></_>
    <_>
      <rects>
        <_>
          0 3 1 8 -1.</_>
        <_>
          0 7 1 4 2.</_></rects>
      <tilted>0</tilted></_>
    <_>
      <rects>
        <_>
          0 3 2 9 -1.</_>
        <_>
          1 3 1 9 2.</_></rects>
      <tilted>0</tilted></_>
    <_>
      <rects>
        <_>
          0 3 3 9 -1.</_>
        <_>
          1 3 1 9 2.</_></rects>
      <tilted>0</tilted></_>
    <_>
      <rects>
        <_>
          0 3 6 7 -1.</_>
        <_>
          3 3 3 7 2.</_></rects>
      <tilted>0</tilted></_>
    <_>
      <rects>
        <_>
          0 4 2 6 -1.</_>
        <_>
          1 4 1 6 2.</_></rects>
      <tilted>0</tilted></_>
    <_>
      <rects>
        <_>
          0 4 4 8 -1.</_>
        <_>
          0 4 2 4 2.</_>
        <_>
          2 8 2 4 2.</_></rects>
      <tilted>0</tilted></_>
    <_>
      <rects>
        <_>
          0 4 6 8 -1.</_>
        <_>
          0 4 3 4 2.</_>
        <_>
          3 8 3 4 2.</_></rects>
      <tilted>0</tilted></_>
    <_>
      <rects>
        <_>
          0 4 12 6 -1.</_>
        <_>
          0 7 12 3 2.</_></rects>
      <tilted>0</tilted></_>
    <_>
      <rects>
        <_>
          0 5 2 4 -1.</_>
        <_>
          0 5 1 2 2.</_>
        <_>
          1 7 1 2 2.</_></rects>
      <tilted>0</tilted></_>
    <_>
      <rects>
        <_>
          0 5 2 4 -1.</_>
        <_>
          1 5 1 4 2.</_></rects>
      <tilted>0</tilted></_>
    <_>
      <rects>
        <_>
          0 6 1 3 -1.</_>
        <_>
          0 7 1 1 2.</_></rects>
      <tilted>0</tilted></_>
    <_>
      <rects>
        <_>
          0 6 2 2 -1.</_>
        <_>
          1 6 1 2 2.</_></rects>
      <tilted>0</tilted></_>
    <_>
      <rects>
        <_>
          0 6 2 4 -1.</_>
        <_>
          1 6 1 4 2.</_></rects>
      <tilted>0</tilted></_>
    <_>
      <rects>
        <_>
          0 6 2 4 -1.</_>
        <_>
          0 8 2 2 2.</_></rects>
      <tilted>0</tilted></_>
    <_>
      <rects>
        <_>
          0 6 6 4 -1.</_>
        <_>
          3 6 3 4 2.</_></rects>
      <tilted>0</tilted></_>
    <_>
      <rects>
        <_>
          0 7 4 5 -1.</_>
        <_>
          2 7 2 5 2.</_></rects>
      <tilted>0</tilted></_>
    <_>
      <rects>
        <_>
          0 9 6 3 -1.</_>
        <_>
          2 9 2 3 2.</_></rects>
      <tilted>0</tilted></_>
    <_>
      <rects>
        <_>
          0 10 1 2 -1.</_>
        <_>
          0 11 1 1 2.</_></rects>
      <tilted>0</tilted></_>
    <_>
      <rects>
        <_>
          0 11 4 1 -1.</_>
        <_>
          2 11 2 1 2.</_></rects>
      <tilted>0</tilted></_>
    <_>
      <rects>
        <_>
          0 11 6 1 -1.</_>
        <_>
          2 11 2 1 2.</_></rects>
      <tilted>0</tilted></_>
    <_>
      <rects>
        <_>
          1 0 2 2 -1.</_>
        <_>
          1 1 2 1 2.</_></rects>
      <tilted>0</tilted></_>
    <_>
      <rects>
        <_>
          1 0 6 2 -1.</_>
        <_>
          1 0 3 1 2.</_>
        <_>
          4 1 3 1 2.</_></rects>
      <tilted>0</tilted></_>
    <_>
      <rects>
        <_>
          1 0 6 4 -1.</_>
        <_>
          1 2 6 2 2.</_></rects>
      <tilted>0</tilted></_>
    <_>
      <rects>
        <_>
          1 1 2 6 -1.</_>
        <_>
          1 1 1 3 2.</_>
        <_>
          2 4 1 3 2.</_></rects>
      <tilted>0</tilted></_>
    <_>
      <rects>
        <_>
          1 3 2 4 -1.</_>
        <_>
          1 3 1 2 2.</_>
        <_>
          2 5 1 2 2.</_></rects>
      <tilted>0</tilted></_>
    <_>
      <rects>
        <_>
          1 4 2 8 -1.</_>
        <_>
          1 4 1 4 2.</_>
        <_>
          2 8 1 4 2.</_></rects>
      <tilted>0</tilted></_>
    <_>
      <rects>
        <_>
          1 4 4 6 -1.</_>
        <_>
          1 4 2 3 2.</_>
        <_>
          3 7 2 3 2.</_></rects>
      <tilted>0</tilted></_>
    <_>
      <rects>
        <_>
          1 5 8 2 -1.</_>
        <_>
          1 6 8 1 2.</_></rects>
      <tilted>0</tilted></_>
    <_>
      <rects>
        <_>
          1 6 11 4 -1.</_>
        <_>
          1 8 11 2 2.</_></rects>
      <tilted>0</tilted></_>
    <_>
      <rects>
        <_>
          1 8 2 4 -1.</_>
        <_>
          1 8 1 2 2.</_>
        <_>
          2 10 1 2 2.</_></rects>
      <tilted>0</tilted></_>
    <_>
      <rects>
        <_>
          1 9 2 3 -1.</_>
        <_>
          2 9 1 3 2.</_></rects>
      <tilted>0</tilted></_>
    <_>
      <rects>
        <_>
          1 9 3 3 -1.</_>
        <_>
          2 9 1 3 2.</_></rects>
      <tilted>0</tilted></_>
    <_>
      <rects>
        <_>
          1 10 2 1 -1.</_>
        <_>
          2 10 1 1 2.</_></rects>
      <tilted>0</tilted></_>
    <_>
      <rects>
        <_>
          1 10 8 2 -1.</_>
        <_>
          1 10 4 1 2.</_>
        <_>
          5 11 4 1 2.</_></rects>
      <tilted>0</tilted></_>
    <_>
      <rects>
        <_>
          1 10 5 2 -1.</_>
        <_>
          1 11 5 1 2.</_></rects>
      <tilted>0</tilted></_>
    <_>
      <rects>
        <_>
          2 0 1 12 -1.</_>
        <_>
          2 6 1 6 2.</_></rects>
      <tilted>0</tilted></_>
    <_>
      <rects>
        <_>
          2 0 4 12 -1.</_>
        <_>
          2 0 2 6 2.</_>
        <_>
          4 6 2 6 2.</_></rects>
      <tilted>0</tilted></_>
    <_>
      <rects>
        <_>
          2 0 10 2 -1.</_>
        <_>
          2 0 5 1 2.</_>
        <_>
          7 1 5 1 2.</_></rects>
      <tilted>0</tilted></_>
    <_>
      <rects>
        <_>
          2 0 9 4 -1.</_>
        <_>
          2 2 9 2 2.</_></rects>
      <tilted>0</tilted></_>
    <_>
      <rects>
        <_>
          2 1 2 9 -1.</_>
        <_>
          3 1 1 9 2.</_></rects>
      <tilted>0</tilted></_>
    <_>
      <rects>
        <_>
          2 4 4 8 -1.</_>
        <_>
          2 4 2 4 2.</_>
        <_>
          4 8 2 4 2.</_></rects>
      <tilted>0</tilted></_>
    <_>
      <rects>
        <_>
          2 4 9 8 -1.</_>
        <_>
          5 4 3 8 2.</_></rects>
      <tilted>0</tilted></_>
    <_>
      <rects>
        <_>
          2 4 10 4 -1.</_>
        <_>
          2 4 5 2 2.</_>
        <_>
          7 6 5 2 2.</_></rects>
      <tilted>0</tilted></_>
    <_>
      <rects>
        <_>
          2 4 10 4 -1.</_>
        <_>
          2 6 10 2 2.</_></rects>
      <tilted>0</tilted></_>
    <_>
      <rects>
        <_>
          2 5 1 6 -1.</_>
        <_>
          2 8 1 3 2.</_></rects>
      <tilted>0</tilted></_>
    <_>
      <rects>
        <_>
          2 7 6 1 -1.</_>
        <_>
          4 7 2 1 2.</_></rects>
      <tilted>0</tilted></_>
    <_>
      <rects>
        <_>
          2 9 2 3 -1.</_>
        <_>
          3 9 1 3 2.</_></rects>
      <tilted>0</tilted></_>
    <_>
      <rects>
        <_>
          3 2 1 4 -1.</_>
        <_>
          3 4 1 2 2.</_></rects>
      <tilted>0</tilted></_>
    <_>
      <rects>
        <_>
          3 3 1 4 -1.</_>
        <_>
          3 5 1 2 2.</_></rects>
      <tilted>0</tilted></_>
    <_>
      <rects>
        <_>
          3 4 8 8 -1.</_>
        <_>
          3 8 8 4 2.</_></rects>
      <tilted>0</tilted></_>
    <_>
      <rects>
        <_>
          3 5 8 4 -1.</_>
        <_>
          3 5 4 2 2.</_>
        <_>
          7 7 4 2 2.</_></rects>
      <tilted>0</tilted></_>
    <_>
      <rects>
        <_>
          3 8 7 3 -1.</_>
        <_>
          3 9 7 1 2.</_></rects>
      <tilted>0</tilted></_>
    <_>
      <rects>
        <_>
          3 10 2 2 -1.</_>
        <_>
          3 10 1 1 2.</_>
        <_>
          4 11 1 1 2.</_></rects>
      <tilted>0</tilted></_>
    <_>
      <rects>
        <_>
          4 2 2 2 -1.</_>
        <_>
          4 2 1 1 2.</_>
        <_>
          5 3 1 1 2.</_></rects>
      <tilted>0</tilted></_>
    <_>
      <rects>
        <_>
          4 4 8 2 -1.</_>
        <_>
          8 4 4 2 2.</_></rects>
      <tilted>0</tilted></_>
    <_>
      <rects>
        <_>
          4 5 7 4 -1.</_>
        <_>
          4 7 7 2 2.</_></rects>
      <tilted>0</tilted></_>
    <_>
      <rects>
        <_>
          4 6 2 2 -1.</_>
        <_>
          4 7 2 1 2.</_></rects>
      <tilted>0</tilted></_>
    <_>
      <rects>
        <_>
          4 6 6 4 -1.</_>
        <_>
          4 8 6 2 2.</_></rects>
      <tilted>0</tilted></_>
    <_>
      <rects>
        <_>
          4 10 3 2 -1.</_>
        <_>
          4 11 3 1 2.</_></rects>
      <tilted>0</tilted></_>
    <_>
      <rects>
        <_>
          4 10 4 2 -1.</_>
        <_>
          4 11 4 1 2.</_></rects>
      <tilted>0</tilted></_>
    <_>
      <rects>
        <_>
          4 10 8 2 -1.</_>
        <_>
          4 10 4 1 2.</_>
        <_>
          8 11 4 1 2.</_></rects>
      <tilted>0</tilted></_>
    <_>
      <rects>
        <_>
          4 11 2 1 -1.</_>
        <_>
          5 11 1 1 2.</_></rects>
      <tilted>0</tilted></_>
    <_>
      <rects>
        <_>
          5 0 2 2 -1.</_>
        <_>
          6 0 1 2 2.</_></rects>
      <tilted>0</tilted></_>
    <_>
      <rects>
        <_>
          5 1 4 6 -1.</_>
        <_>
          5 4 4 3 2.</_></rects>
      <tilted>0</tilted></_>
    <_>
      <rects>
        <_>
          5 4 6 3 -1.</_>
        <_>
          8 4 3 3 2.</_></rects>
      <tilted>0</tilted></_>
    <_>
      <rects>
        <_>
          5 4 4 4 -1.</_>
        <_>
          5 6 4 2 2.</_></rects>
      <tilted>0</tilted></_>
    <_>
      <rects>
        <_>
          5 6 6 4 -1.</_>
        <_>
          5 6 3 2 2.</_>
        <_>
          8 8 3 2 2.</_></rects>
      <tilted>0</tilted></_>
    <_>
      <rects>
        <_>
          5 6 6 4 -1.</_>
        <_>
          5 8 6 2 2.</_></rects>
      <tilted>0</tilted></_>
    <_>
      <rects>
        <_>
          5 8 4 4 -1.</_>
        <_>
          7 8 2 4 2.</_></rects>
      <tilted>0</tilted></_>
    <_>
      <rects>
        <_>
          6 0 2 2 -1.</_>
        <_>
          6 0 1 1 2.</_>
        <_>
          7 1 1 1 2.</_></rects>
      <tilted>0</tilted></_>
    <_>
      <rects>
        <_>
          6 0 4 2 -1.</_>
        <_>
          6 0 2 1 2.</_>
        <_>
          8 1 2 1 2.</_></rects>
      <tilted>0</tilted></_>
    <_>
      <rects>
        <_>
          6 0 6 6 -1.</_>
        <_>
          9 0 3 6 2.</_></rects>
      <tilted>0</tilted></_>
    <_>
      <rects>
        <_>
          6 2 6 6 -1.</_>
        <_>
          9 2 3 6 2.</_></rects>
      <tilted>0</tilted></_>
    <_>
      <rects>
        <_>
          6 4 6 2 -1.</_>
        <_>
          9 4 3 2 2.</_></rects>
      <tilted>0</tilted></_>
    <_>
      <rects>
        <_>
          6 4 6 6 -1.</_>
        <_>
          6 4 3 3 2.</_>
        <_>
          9 7 3 3 2.</_></rects>
      <tilted>0</tilted></_>
    <_>
      <rects>
        <_>
          6 4 6 8 -1.</_>
        <_>
          6 8 6 4 2.</_></rects>
      <tilted>0</tilted></_>
    <_>
      <rects>
        <_>
          6 6 6 4 -1.</_>
        <_>
          8 6 2 4 2.</_></rects>
      <tilted>0</tilted></_>
    <_>
      <rects>
        <_>
          7 2 3 2 -1.</_>
        <_>
          8 2 1 2 2.</_></rects>
      <tilted>0</tilted></_>
    <_>
      <rects>
        <_>
          7 5 4 6 -1.</_>
        <_>
          7 5 2 3 2.</_>
        <_>
          9 8 2 3 2.</_></rects>
      <tilted>0</tilted></_>
    <_>
      <rects>
        <_>
          7 5 3 4 -1.</_>
        <_>
          7 7 3 2 2.</_></rects>
      <tilted>0</tilted></_>
    <_>
      <rects>
        <_>
          7 8 1 2 -1.</_>
        <_>
          7 9 1 1 2.</_></rects>
      <tilted>0</tilted></_>
    <_>
      <rects>
        <_>
          8 0 4 6 -1.</_>
        <_>
          10 0 2 6 2.</_></rects>
      <tilted>0</tilted></_>
    <_>
      <rects>
        <_>
          8 0 4 12 -1.</_>
        <_>
          10 0 2 12 2.</_></rects>
      <tilted>0</tilted></_>
    <_>
      <rects>
        <_>
          8 0 4 2 -1.</_>
        <_>
          8 1 4 1 2.</_></rects>
      <tilted>0</tilted></_>
    <_>
      <rects>
        <_>
          8 1 4 8 -1.</_>
        <_>
          8 1 2 4 2.</_>
        <_>
          10 5 2 4 2.</_></rects>
      <tilted>0</tilted></_>
    <_>
      <rects>
        <_>
          8 4 4 8 -1.</_>
        <_>
          8 4 2 4 2.</_>
        <_>
          10 8 2 4 2.</_></rects>
      <tilted>0</tilted></_>
    <_>
      <rects>
        <_>
          8 4 4 7 -1.</_>
        <_>
          10 4 2 7 2.</_></rects>
      <tilted>0</tilted></_>
    <_>
      <rects>
        <_>
          8 5 2 6 -1.</_>
        <_>
          8 5 1 3 2.</_>
        <_>
          9 8 1 3 2.</_></rects>
      <tilted>0</tilted></_>
    <_>
      <rects>
        <_>
          8 6 2 4 -1.</_>
        <_>
          8 6 1 2 2.</_>
        <_>
          9 8 1 2 2.</_></rects>
      <tilted>0</tilted></_>
    <_>
      <rects>
        <_>
          8 6 4 2 -1.</_>
        <_>
          10 6 2 2 2.</_></rects>
      <tilted>0</tilted></_>
    <_>
      <rects>
        <_>
          8 6 4 6 -1.</_>
        <_>
          8 6 2 3 2.</_>
        <_>
          10 9 2 3 2.</_></rects>
      <tilted>0</tilted></_>
    <_>
      <rects>
        <_>
          8 8 2 4 -1.</_>
        <_>
          9 8 1 4 2.</_></rects>
      <tilted>0</tilted></_>
    <_>
      <rects>
        <_>
          8 8 4 3 -1.</_>
        <_>
          10 8 2 3 2.</_></rects>
      <tilted>0</tilted></_>
    <_>
      <rects>
        <_>
          8 9 4 1 -1.</_>
        <_>
          10 9 2 1 2.</_></rects>
      <tilted>0</tilted></_>
    <_>
      <rects>
        <_>
          8 10 2 2 -1.</_>
        <_>
          9 10 1 2 2.</_></rects>
      <tilted>0</tilted></_>
    <_>
      <rects>
        <_>
          8 11 2 1 -1.</_>
        <_>
          9 11 1 1 2.</_></rects>
      <tilted>0</tilted></_>
    <_>
      <rects>
        <_>
          9 0 2 10 -1.</_>
        <_>
          9 5 2 5 2.</_></rects>
      <tilted>0</tilted></_>
    <_>
      <rects>
        <_>
          9 2 2 2 -1.</_>
        <_>
          9 2 1 1 2.</_>
        <_>
          10 3 1 1 2.</_></rects>
      <tilted>0</tilted></_>
    <_>
      <rects>
        <_>
          9 6 2 4 -1.</_>
        <_>
          9 6 1 2 2.</_>
        <_>
          10 8 1 2 2.</_></rects>
      <tilted>0</tilted></_>
    <_>
      <rects>
        <_>
          9 8 2 4 -1.</_>
        <_>
          9 8 1 2 2.</_>
        <_>
          10 10 1 2 2.</_></rects>
      <tilted>0</tilted></_>
    <_>
      <rects>
        <_>
          9 9 2 2 -1.</_>
        <_>
          10 9 1 2 2.</_></rects>
      <tilted>0</tilted></_>
    <_>
      <rects>
        <_>
          10 0 1 4 -1.</_>
        <_>
          10 2 1 2 2.</_></rects>
      <tilted>0</tilted></_>
    <_>
      <rects>
        <_>
          10 0 2 11 -1.</_>
        <_>
          11 0 1 11 2.</_></rects>
      <tilted>0</tilted></_>
    <_>
      <rects>
        <_>
          10 1 2 11 -1.</_>
        <_>
          11 1 1 11 2.</_></rects>
      <tilted>0</tilted></_>
    <_>
      <rects>
        <_>
          10 2 2 6 -1.</_>
        <_>
          11 2 1 6 2.</_></rects>
      <tilted>0</tilted></_>
    <_>
      <rects>
        <_>
          10 2 2 9 -1.</_>
        <_>
          11 2 1 9 2.</_></rects>
      <tilted>0</tilted></_>
    <_>
      <rects>
        <_>
          10 2 2 10 -1.</_>
        <_>
          11 2 1 10 2.</_></rects>
      <tilted>0</tilted></_>
    <_>
      <rects>
        <_>
          10 3 2 6 -1.</_>
        <_>
          11 3 1 6 2.</_></rects>
      <tilted>0</tilted></_>
    <_>
      <rects>
        <_>
          10 3 2 8 -1.</_>
        <_>
          11 3 1 8 2.</_></rects>
      <tilted>0</tilted></_>
    <_>
      <rects>
        <_>
          10 4 2 4 -1.</_>
        <_>
          10 4 1 2 2.</_>
        <_>
          11 6 1 2 2.</_></rects>
      <tilted>0</tilted></_>
    <_>
      <rects>
        <_>
          10 4 2 8 -1.</_>
        <_>
          11 4 1 8 2.</_></rects>
      <tilted>0</tilted></_>
    <_>
      <rects>
        <_>
          10 5 2 5 -1.</_>
        <_>
          11 5 1 5 2.</_></rects>
      <tilted>0</tilted></_>
    <_>
      <rects>
        <_>
          10 5 2 6 -1.</_>
        <_>
          10 8 2 3 2.</_></rects>
      <tilted>0</tilted></_>
    <_>
      <rects>
        <_>
          10 6 2 4 -1.</_>
        <_>
          11 6 1 4 2.</_></rects>
      <tilted>0</tilted></_>
    <_>
      <rects>
        <_>
          10 6 2 6 -1.</_>
        <_>
          11 6 1 6 2.</_></rects>
      <tilted>0</tilted></_>
    <_>
      <rects>
        <_>
          10 7 2 3 -1.</_>
        <_>
          11 7 1 3 2.</_></rects>
      <tilted>0</tilted></_>
    <_>
      <rects>
        <_>
          10 8 2 2 -1.</_>
        <_>
          10 9 2 1 2.</_></rects>
      <tilted>0</tilted></_>
    <_>
      <rects>
        <_>
          10 9 2 3 -1.</_>
        <_>
          11 9 1 3 2.</_></rects>
      <tilted>0</tilted></_>
    <_>
      <rects>
        <_>
          10 9 2 2 -1.</_>
        <_>
          10 10 2 1 2.</_></rects>
      <tilted>0</tilted></_>
    <_>
      <rects>
        <_>
          11 7 1 2 -1.</_>
        <_>
          11 8 1 1 2.</_></rects>
      <tilted>0</tilted></_>
    <_>
      <rects>
        <_>
          11 8 1 3 -1.</_>
        <_>
          11 9 1 1 2.</_></rects>
      <tilted>0</tilted></_>
    <_>
      <rects>
        <_>
          11 10 1 2 -1.</_>
        <_>
          11 11 1 1 2.</_></rects>
      <tilted>0</tilted></_></features></cascade>
</opencv_storage>
