<?xml version="1.0"?>
<opencv_storage>
<stage9>
  <maxWeakCount>11</maxWeakCount>
  <stageThreshold>-8.1651031970977783e-01</stageThreshold>
  <weakClassifiers>
    <_>
      <internalNodes>
        0 -1 10239 -6.0051426291465759e-02</internalNodes>
      <leafValues>
        5.4491019248962402e-01 -3.9055794477462769e-01</leafValues></_>
    <_>
      <internalNodes>
        0 -1 1274 5.2571114152669907e-02</internalNodes>
      <leafValues>
        -4.1219094395637512e-01 4.1259646415710449e-01</leafValues></_>
    <_>
      <internalNodes>
        0 -1 10343 2.3040170781314373e-03</internalNodes>
      <leafValues>
        2.2285814583301544e-01 -6.6932094097137451e-01</leafValues></_>
    <_>
      <internalNodes>
        0 -1 3285 1.0842412710189819e-02</internalNodes>
      <leafValues>
        2.4621999263763428e-01 -6.1871618032455444e-01</leafValues></_>
    <_>
      <internalNodes>
        0 -1 3114 -8.0395648255944252e-03</internalNodes>
      <leafValues>
        -7.0019870996475220e-01 1.3833421468734741e-01</leafValues></_>
    <_>
      <internalNodes>
        0 -1 7754 -6.3420771621167660e-03</internalNodes>
      <leafValues>
        -6.8232154846191406e-01 1.6141831874847412e-01</leafValues></_>
    <_>
      <internalNodes>
        0 -1 275 -2.9889795184135437e-01</internalNodes>
      <leafValues>
        7.2574478387832642e-01 -1.6908566653728485e-01</leafValues></_>
    <_>
      <internalNodes>
        0 -1 6060 2.9065003618597984e-03</internalNodes>
      <leafValues>
        2.0891319215297699e-01 -5.4757499694824219e-01</leafValues></_>
    <_>
      <internalNodes>
        0 -1 4055 1.4885138720273972e-02</internalNodes>
      <leafValues>
        -2.4026779830455780e-01 5.3703415393829346e-01</leafValues></_>
    <_>
      <internalNodes>
        0 -1 3117 -1.1825727298855782e-02</internalNodes>
      <leafValues>
        -6.0209530591964722e-01 2.5966718792915344e-01</leafValues></_>
    <_>
      <internalNodes>
        0 -1 6789 7.4731456115841866e-03</internalNodes>
      <leafValues>
        1.0757772624492645e-01 -8.3418685197830200e-01</leafValues></_></weakClassifiers></stage9>
</opencv_storage>
