<?xml version="1.0"?>
<opencv_storage>
<stage7>
  <maxWeakCount>13</maxWeakCount>
  <stageThreshold>-9.0065419673919678e-01</stageThreshold>
  <weakClassifiers>
    <_>
      <internalNodes>
        0 -1 956 3.7945717573165894e-02</internalNodes>
      <leafValues>
        -6.9491523504257202e-01 2.9078012704849243e-01</leafValues></_>
    <_>
      <internalNodes>
        0 -1 9665 -1.5571416355669498e-02</internalNodes>
      <leafValues>
        2.8286376595497131e-01 -5.7561939954757690e-01</leafValues></_>
    <_>
      <internalNodes>
        0 -1 8981 1.6636554151773453e-02</internalNodes>
      <leafValues>
        -2.5300106406211853e-01 6.6325670480728149e-01</leafValues></_>
    <_>
      <internalNodes>
        0 -1 10061 2.3236879496835172e-04</internalNodes>
      <leafValues>
        -4.0267121791839600e-01 3.3141255378723145e-01</leafValues></_>
    <_>
      <internalNodes>
        0 -1 2976 2.0800385624170303e-02</internalNodes>
      <leafValues>
        -1.8483620882034302e-01 8.0871915817260742e-01</leafValues></_>
    <_>
      <internalNodes>
        0 -1 10339 -1.0887922346591949e-01</internalNodes>
      <leafValues>
        -5.2481907606124878e-01 3.5267823934555054e-01</leafValues></_>
    <_>
      <internalNodes>
        0 -1 7630 1.2642921879887581e-02</internalNodes>
      <leafValues>
        -3.6901494860649109e-01 3.9731875061988831e-01</leafValues></_>
    <_>
      <internalNodes>
        0 -1 3159 1.5408685430884361e-02</internalNodes>
      <leafValues>
        -3.1372085213661194e-01 3.4856382012367249e-01</leafValues></_>
    <_>
      <internalNodes>
        0 -1 309 2.0247663557529449e-01</internalNodes>
      <leafValues>
        -2.4960933625698090e-01 4.9534672498703003e-01</leafValues></_>
    <_>
      <internalNodes>
        0 -1 9211 -8.3777606487274170e-02</internalNodes>
      <leafValues>
        3.7490686774253845e-01 -3.5993501543998718e-01</leafValues></_>
    <_>
      <internalNodes>
        0 -1 1121 -8.7284389883279800e-03</internalNodes>
      <leafValues>
        6.4051872491836548e-01 -2.0209771394729614e-01</leafValues></_>
    <_>
      <internalNodes>
        0 -1 2530 -2.8189931064844131e-02</internalNodes>
      <leafValues>
        5.3173059225082397e-01 -1.9661252200603485e-01</leafValues></_>
    <_>
      <internalNodes>
        0 -1 9679 -9.4729632837697864e-04</internalNodes>
      <leafValues>
        -2.9183819890022278e-01 4.2068052291870117e-01</leafValues></_></weakClassifiers></stage7>
</opencv_storage>
