<?xml version="1.0"?>
<opencv_storage>
<stage2>
  <maxWeakCount>6</maxWeakCount>
  <stageThreshold>-1.3923771381378174e+00</stageThreshold>
  <weakClassifiers>
    <_>
      <internalNodes>
        0 -1 1126 4.6823747456073761e-02</internalNodes>
      <leafValues>
        -6.3207548856735229e-01 7.1276593208312988e-01</leafValues></_>
    <_>
      <internalNodes>
        0 -1 10220 -3.4684009850025177e-02</internalNodes>
      <leafValues>
        6.8741184473037720e-01 -5.9345459938049316e-01</leafValues></_>
    <_>
      <internalNodes>
        0 -1 564 -6.6665317863225937e-03</internalNodes>
      <leafValues>
        -7.6508772373199463e-01 2.9693606495857239e-01</leafValues></_>
    <_>
      <internalNodes>
        0 -1 9648 -2.0492397248744965e-02</internalNodes>
      <leafValues>
        3.9667025208473206e-01 -6.1196237802505493e-01</leafValues></_>
    <_>
      <internalNodes>
        0 -1 1265 6.9899270310997963e-03</internalNodes>
      <leafValues>
        -6.1528766155242920e-01 3.6344850063323975e-01</leafValues></_>
    <_>
      <internalNodes>
        0 -1 6400 -5.7750783860683441e-02</internalNodes>
      <leafValues>
        4.4713696837425232e-01 -4.6400836110115051e-01</leafValues></_></weakClassifiers></stage2>
</opencv_storage>
