<?xml version="1.0"?>
<opencv_storage>
<stage11>
  <maxWeakCount>11</maxWeakCount>
  <stageThreshold>-9.1012614965438843e-01</stageThreshold>
  <weakClassifiers>
    <_>
      <internalNodes>
        0 -1 10147 -4.9176339060068130e-02</internalNodes>
      <leafValues>
        2.3711340129375458e-01 -6.3302749395370483e-01</leafValues></_>
    <_>
      <internalNodes>
        0 -1 765 2.0608347654342651e-01</internalNodes>
      <leafValues>
        -2.4448484182357788e-01 4.9489244818687439e-01</leafValues></_>
    <_>
      <internalNodes>
        0 -1 525 -6.7036664485931396e-01</internalNodes>
      <leafValues>
        -8.6729460954666138e-01 1.3585634529590607e-01</leafValues></_>
    <_>
      <internalNodes>
        0 -1 304 -3.5064178705215454e-01</internalNodes>
      <leafValues>
        1.2277932465076447e-01 -9.4221484661102295e-01</leafValues></_>
    <_>
      <internalNodes>
        0 -1 10278 2.7544947806745768e-03</internalNodes>
      <leafValues>
        9.3611977994441986e-02 -6.4124828577041626e-01</leafValues></_>
    <_>
      <internalNodes>
        0 -1 9230 -7.8231077641248703e-03</internalNodes>
      <leafValues>
        -7.4094146490097046e-01 1.4448705315589905e-01</leafValues></_>
    <_>
      <internalNodes>
        0 -1 9687 7.1861064061522484e-03</internalNodes>
      <leafValues>
        -1.8921485543251038e-01 6.7389982938766479e-01</leafValues></_>
    <_>
      <internalNodes>
        0 -1 1685 -2.0225074887275696e-01</internalNodes>
      <leafValues>
        -4.0154615044593811e-01 2.3974019289016724e-01</leafValues></_>
    <_>
      <internalNodes>
        0 -1 2331 -4.7933291643857956e-03</internalNodes>
      <leafValues>
        4.8790192604064941e-01 -2.2359728813171387e-01</leafValues></_>
    <_>
      <internalNodes>
        0 -1 10038 -4.0000360459089279e-03</internalNodes>
      <leafValues>
        -1.7178399860858917e-01 4.7191712260246277e-01</leafValues></_>
    <_>
      <internalNodes>
        0 -1 4003 -4.2823299765586853e-02</internalNodes>
      <leafValues>
        5.6561088562011719e-01 -1.8449252843856812e-01</leafValues></_></weakClassifiers></stage11>
</opencv_storage>
