<?xml version="1.0"?>
<opencv_storage>
<stage4>
  <maxWeakCount>9</maxWeakCount>
  <stageThreshold>-1.0378942489624023e+00</stageThreshold>
  <weakClassifiers>
    <_>
      <internalNodes>
        0 -1 1126 5.4992403835058212e-02</internalNodes>
      <leafValues>
        -5.5868542194366455e-01 6.3636362552642822e-01</leafValues></_>
    <_>
      <internalNodes>
        0 -1 10254 -4.2113125324249268e-02</internalNodes>
      <leafValues>
        6.3058871030807495e-01 -3.8955330848693848e-01</leafValues></_>
    <_>
      <internalNodes>
        0 -1 3342 5.2759785205125809e-02</internalNodes>
      <leafValues>
        -2.2524560987949371e-01 7.7999186515808105e-01</leafValues></_>
    <_>
      <internalNodes>
        0 -1 1601 -4.2502155900001526e-01</internalNodes>
      <leafValues>
        -2.6889404654502869e-01 6.1744427680969238e-01</leafValues></_>
    <_>
      <internalNodes>
        0 -1 4437 -5.5619901977479458e-03</internalNodes>
      <leafValues>
        5.4453504085540771e-01 -3.2755964994430542e-01</leafValues></_>
    <_>
      <internalNodes>
        0 -1 1005 5.2390515804290771e-02</internalNodes>
      <leafValues>
        -2.2926138341426849e-01 7.2039252519607544e-01</leafValues></_>
    <_>
      <internalNodes>
        0 -1 6793 7.6215271838009357e-03</internalNodes>
      <leafValues>
        1.7658026516437531e-01 -9.2452389001846313e-01</leafValues></_>
    <_>
      <internalNodes>
        0 -1 9489 -8.4112003445625305e-02</internalNodes>
      <leafValues>
        8.6310911178588867e-01 -1.8804164230823517e-01</leafValues></_>
    <_>
      <internalNodes>
        0 -1 7052 3.9064653217792511e-02</internalNodes>
      <leafValues>
        -2.2228251397609711e-01 5.8135008811950684e-01</leafValues></_></weakClassifiers></stage4>
</opencv_storage>
