<?xml version="1.0"?>
<opencv_storage>
<stage1>
  <maxWeakCount>5</maxWeakCount>
  <stageThreshold>-1.1657242774963379e+00</stageThreshold>
  <weakClassifiers>
    <_>
      <internalNodes>
        0 -1 543 7.6734781265258789e-02</internalNodes>
      <leafValues>
        -7.3459714651107788e-01 8.2010579109191895e-01</leafValues></_>
    <_>
      <internalNodes>
        0 -1 9492 -9.6422180533409119e-02</internalNodes>
      <leafValues>
        7.0164579153060913e-01 -6.4103382825851440e-01</leafValues></_>
    <_>
      <internalNodes>
        0 -1 1426 8.1042587757110596e-02</internalNodes>
      <leafValues>
        -5.0190520286560059e-01 5.4759413003921509e-01</leafValues></_>
    <_>
      <internalNodes>
        0 -1 8050 -2.3217953741550446e-02</internalNodes>
      <leafValues>
        4.5830047130584717e-01 -6.0844928026199341e-01</leafValues></_>
    <_>
      <internalNodes>
        0 -1 10061 -3.3788091968744993e-03</internalNodes>
      <leafValues>
        -7.5110620260238647e-01 2.7076184749603271e-01</leafValues></_></weakClassifiers></stage1>
</opencv_storage>
