<?xml version="1.0"?>
<opencv_storage>
<stage12>
  <maxWeakCount>14</maxWeakCount>
  <stageThreshold>-1.0256512165069580e+00</stageThreshold>
  <weakClassifiers>
    <_>
      <internalNodes>
        0 -1 979 5.2733123302459717e-02</internalNodes>
      <leafValues>
        -2.5373134016990662e-01 5.1515150070190430e-01</leafValues></_>
    <_>
      <internalNodes>
        0 -1 1870 3.0353629961609840e-02</internalNodes>
      <leafValues>
        -2.3356018960475922e-01 4.5394390821456909e-01</leafValues></_>
    <_>
      <internalNodes>
        0 -1 10022 -1.6897968947887421e-02</internalNodes>
      <leafValues>
        5.8267599344253540e-01 -1.4987625181674957e-01</leafValues></_>
    <_>
      <internalNodes>
        0 -1 9639 -6.2332011759281158e-02</internalNodes>
      <leafValues>
        8.8196396827697754e-01 -1.1717432737350464e-01</leafValues></_>
    <_>
      <internalNodes>
        0 -1 1314 8.5554748773574829e-02</internalNodes>
      <leafValues>
        -3.2447415590286255e-01 2.8906163573265076e-01</leafValues></_>
    <_>
      <internalNodes>
        0 -1 3050 -1.7596844583749771e-02</internalNodes>
      <leafValues>
        7.4684059619903564e-01 -1.1078746616840363e-01</leafValues></_>
    <_>
      <internalNodes>
        0 -1 8744 -1.3150912523269653e-01</internalNodes>
      <leafValues>
        -7.9004183411598206e-02 7.4145185947418213e-01</leafValues></_>
    <_>
      <internalNodes>
        0 -1 1110 -5.9415660798549652e-02</internalNodes>
      <leafValues>
        3.9702287316322327e-01 -2.0583710074424744e-01</leafValues></_>
    <_>
      <internalNodes>
        0 -1 10277 -6.4009159803390503e-02</internalNodes>
      <leafValues>
        4.6530327200889587e-01 -1.5679785609245300e-01</leafValues></_>
    <_>
      <internalNodes>
        0 -1 10191 1.7729867249727249e-02</internalNodes>
      <leafValues>
        -1.2284214794635773e-01 7.6254415512084961e-01</leafValues></_>
    <_>
      <internalNodes>
        0 -1 8988 2.3450497537851334e-02</internalNodes>
      <leafValues>
        -1.4800287783145905e-01 6.1213940382003784e-01</leafValues></_>
    <_>
      <internalNodes>
        0 -1 9562 8.4596611559391022e-03</internalNodes>
      <leafValues>
        -1.5909497439861298e-01 4.7061559557914734e-01</leafValues></_>
    <_>
      <internalNodes>
        0 -1 10335 2.9155607335269451e-03</internalNodes>
      <leafValues>
        1.7683629691600800e-01 -6.4159089326858521e-01</leafValues></_>
    <_>
      <internalNodes>
        0 -1 6794 -1.2249585241079330e-02</internalNodes>
      <leafValues>
        -6.4184379577636719e-01 9.8553106188774109e-02</leafValues></_></weakClassifiers></stage12>
</opencv_storage>
