<?xml version="1.0"?>
<opencv_storage>
<stage3>
  <maxWeakCount>7</maxWeakCount>
  <stageThreshold>-8.3513653278350830e-01</stageThreshold>
  <weakClassifiers>
    <_>
      <internalNodes>
        0 -1 543 1.6451701521873474e-01</internalNodes>
      <leafValues>
        -4.5454546809196472e-01 7.8231292963027954e-01</leafValues></_>
    <_>
      <internalNodes>
        0 -1 10201 -6.2728807330131531e-02</internalNodes>
      <leafValues>
        5.8901387453079224e-01 -5.5294209718704224e-01</leafValues></_>
    <_>
      <internalNodes>
        0 -1 525 -4.1630360484123230e-01</internalNodes>
      <leafValues>
        -7.4748855829238892e-01 2.4754968285560608e-01</leafValues></_>
    <_>
      <internalNodes>
        0 -1 541 2.7023874223232269e-02</internalNodes>
      <leafValues>
        -6.0407173633575439e-01 3.3034455776214600e-01</leafValues></_>
    <_>
      <internalNodes>
        0 -1 9577 -1.1429462581872940e-02</internalNodes>
      <leafValues>
        2.0728027820587158e-01 -7.0399087667465210e-01</leafValues></_>
    <_>
      <internalNodes>
        0 -1 511 4.3093687295913696e-01</internalNodes>
      <leafValues>
        -3.0396276712417603e-01 7.8199100494384766e-01</leafValues></_>
    <_>
      <internalNodes>
        0 -1 737 -8.2388378679752350e-02</internalNodes>
      <leafValues>
        6.2555557489395142e-01 -2.4741289019584656e-01</leafValues></_></weakClassifiers></stage3>
</opencv_storage>
