<?xml version="1.0"?>
<opencv_storage>
<cascade>
  <stageType>BOOST</stageType>
  <featureType>HAAR</featureType>
  <height>32</height>
  <width>32</width>
  <stageParams>
    <boostType>GAB</boostType>
    <minHitRate>9.9500000476837158e-01</minHitRate>
    <maxFalseAlarm>5.0000000000000000e-01</maxFalseAlarm>
    <weightTrimRate>9.4999999999999996e-01</weightTrimRate>
    <maxDepth>1</maxDepth>
    <maxWeakCount>100</maxWeakCount></stageParams>
  <featureParams>
    <maxCatCount>0</maxCatCount>
    <featSize>1</featSize>
    <mode>BASIC</mode></featureParams>
  <stageNum>20</stageNum>
  <stages>
    <!-- stage 0 -->
    <_>
      <maxWeakCount>3</maxWeakCount>
      <stageThreshold>-1.3005424737930298e+00</stageThreshold>
      <weakClassifiers>
        <_>
          <internalNodes>
            0 -1 110 -7.5977540016174316e-01</internalNodes>
          <leafValues>
            7.9439252614974976e-01 -9.1397851705551147e-01</leafValues></_>
        <_>
          <internalNodes>
            0 -1 174 -1.1891872622072697e-02</internalNodes>
          <leafValues>
            6.3303405046463013e-01 -7.9789870977401733e-01</leafValues></_>
        <_>
          <internalNodes>
            0 -1 108 -5.5462680757045746e-03</internalNodes>
          <leafValues>
            4.1133469343185425e-01 -8.8420939445495605e-01</leafValues></_></weakClassifiers></_>
    <!-- stage 1 -->
    <_>
      <maxWeakCount>4</maxWeakCount>
      <stageThreshold>-1.3474830389022827e+00</stageThreshold>
      <weakClassifiers>
        <_>
          <internalNodes>
            0 -1 14 3.5454500466585159e-02</internalNodes>
          <leafValues>
            -8.2795697450637817e-01 7.1962618827819824e-01</leafValues></_>
        <_>
          <internalNodes>
            0 -1 146 -6.8516150116920471e-02</internalNodes>
          <leafValues>
            6.8520569801330566e-01 -7.9644781351089478e-01</leafValues></_>
        <_>
          <internalNodes>
            0 -1 179 -2.5213418994098902e-03</internalNodes>
          <leafValues>
            4.5621991157531738e-01 -6.5207570791244507e-01</leafValues></_>
        <_>
          <internalNodes>
            0 -1 25 2.2287581115961075e-02</internalNodes>
          <leafValues>
            -5.5265599489212036e-01 4.6257454156875610e-01</leafValues></_></weakClassifiers></_>
    <!-- stage 2 -->
    <_>
      <maxWeakCount>5</maxWeakCount>
      <stageThreshold>-1.0943648815155029e+00</stageThreshold>
      <weakClassifiers>
        <_>
          <internalNodes>
            0 -1 31 3.4311115741729736e-02</internalNodes>
          <leafValues>
            -6.1085975170135498e-01 7.5418996810913086e-01</leafValues></_>
        <_>
          <internalNodes>
            0 -1 166 -4.7661229968070984e-02</internalNodes>
          <leafValues>
            7.0383989810943604e-01 -5.6252604722976685e-01</leafValues></_>
        <_>
          <internalNodes>
            0 -1 21 3.6486629396677017e-03</internalNodes>
          <leafValues>
            -6.6062015295028687e-01 3.7869629263877869e-01</leafValues></_>
        <_>
          <internalNodes>
            0 -1 148 -5.6650480255484581e-03</internalNodes>
          <leafValues>
            3.1665182113647461e-01 -7.9074257612228394e-01</leafValues></_>
        <_>
          <internalNodes>
            0 -1 39 2.2894437424838543e-03</internalNodes>
          <leafValues>
            -5.7882755994796753e-01 4.2298930883407593e-01</leafValues></_></weakClassifiers></_>
    <!-- stage 3 -->
    <_>
      <maxWeakCount>7</maxWeakCount>
      <stageThreshold>-9.0591299533843994e-01</stageThreshold>
      <weakClassifiers>
        <_>
          <internalNodes>
            0 -1 20 7.8366376459598541e-02</internalNodes>
          <leafValues>
            -6.7272728681564331e-01 4.7234043478965759e-01</leafValues></_>
        <_>
          <internalNodes>
            0 -1 165 -3.5091593861579895e-02</internalNodes>
          <leafValues>
            3.9103275537490845e-01 -7.1401917934417725e-01</leafValues></_>
        <_>
          <internalNodes>
            0 -1 60 8.1882441008929163e-05</internalNodes>
          <leafValues>
            3.7204614281654358e-01 -5.4665315151214600e-01</leafValues></_>
        <_>
          <internalNodes>
            0 -1 19 8.1692133098840714e-03</internalNodes>
          <leafValues>
            -4.1055634617805481e-01 4.9586948752403259e-01</leafValues></_>
        <_>
          <internalNodes>
            0 -1 118 2.3110417649149895e-02</internalNodes>
          <leafValues>
            -2.3151607811450958e-01 7.5839966535568237e-01</leafValues></_>
        <_>
          <internalNodes>
            0 -1 189 6.1548291705548763e-04</internalNodes>
          <leafValues>
            2.2274842858314514e-01 -8.4751325845718384e-01</leafValues></_>
        <_>
          <internalNodes>
            0 -1 89 1.6911085695028305e-02</internalNodes>
          <leafValues>
            -3.3382356166839600e-01 5.2811133861541748e-01</leafValues></_></weakClassifiers></_>
    <!-- stage 4 -->
    <_>
      <maxWeakCount>9</maxWeakCount>
      <stageThreshold>-9.3418133258819580e-01</stageThreshold>
      <weakClassifiers>
        <_>
          <internalNodes>
            0 -1 6 6.8938180804252625e-02</internalNodes>
          <leafValues>
            -6.2222224473953247e-01 5.0909090042114258e-01</leafValues></_>
        <_>
          <internalNodes>
            0 -1 178 -8.8182706385850906e-03</internalNodes>
          <leafValues>
            6.7421758174896240e-01 -3.6924025416374207e-01</leafValues></_>
        <_>
          <internalNodes>
            0 -1 72 3.3018231391906738e-02</internalNodes>
          <leafValues>
            -2.7933558821678162e-01 7.4273830652236938e-01</leafValues></_>
        <_>
          <internalNodes>
            0 -1 26 -4.0327493101358414e-02</internalNodes>
          <leafValues>
            -8.3861947059631348e-01 2.6825705170631409e-01</leafValues></_>
        <_>
          <internalNodes>
            0 -1 149 -2.8469502925872803e-02</internalNodes>
          <leafValues>
            4.3371662497520447e-01 -5.6161099672317505e-01</leafValues></_>
        <_>
          <internalNodes>
            0 -1 28 9.0459696948528290e-03</internalNodes>
          <leafValues>
            -6.8065172433853149e-01 2.7477711439132690e-01</leafValues></_>
        <_>
          <internalNodes>
            0 -1 54 5.4345093667507172e-02</internalNodes>
          <leafValues>
            -2.7897682785987854e-01 8.5732460021972656e-01</leafValues></_>
        <_>
          <internalNodes>
            0 -1 87 -9.0423626825213432e-03</internalNodes>
          <leafValues>
            -8.1366068124771118e-01 2.5763148069381714e-01</leafValues></_>
        <_>
          <internalNodes>
            0 -1 145 -7.2563059628009796e-02</internalNodes>
          <leafValues>
            3.7653890252113342e-01 -4.3127307295799255e-01</leafValues></_></weakClassifiers></_>
    <!-- stage 5 -->
    <_>
      <maxWeakCount>8</maxWeakCount>
      <stageThreshold>-9.6674430370330811e-01</stageThreshold>
      <weakClassifiers>
        <_>
          <internalNodes>
            0 -1 49 1.9728727638721466e-02</internalNodes>
          <leafValues>
            -3.8521400094032288e-01 6.9230771064758301e-01</leafValues></_>
        <_>
          <internalNodes>
            0 -1 150 -2.2102320194244385e-01</internalNodes>
          <leafValues>
            -9.6572512388229370e-01 2.4006125330924988e-01</leafValues></_>
        <_>
          <internalNodes>
            0 -1 23 2.8870215173810720e-03</internalNodes>
          <leafValues>
            -3.3079305291175842e-01 6.3207846879959106e-01</leafValues></_>
        <_>
          <internalNodes>
            0 -1 123 -6.0848072171211243e-03</internalNodes>
          <leafValues>
            5.0632017850875854e-01 -3.6579895019531250e-01</leafValues></_>
        <_>
          <internalNodes>
            0 -1 47 8.2741770893335342e-03</internalNodes>
          <leafValues>
            -3.4898138046264648e-01 6.1797219514846802e-01</leafValues></_>
        <_>
          <internalNodes>
            0 -1 172 1.1469081044197083e-02</internalNodes>
          <leafValues>
            -2.0904977619647980e-01 7.1262443065643311e-01</leafValues></_>
        <_>
          <internalNodes>
            0 -1 180 4.9940252210944891e-04</internalNodes>
          <leafValues>
            2.3289868235588074e-01 -8.7780302762985229e-01</leafValues></_>
        <_>
          <internalNodes>
            0 -1 8 1.2982899323105812e-02</internalNodes>
          <leafValues>
            -6.0442852973937988e-01 2.0013292133808136e-01</leafValues></_></weakClassifiers></_>
    <!-- stage 6 -->
    <_>
      <maxWeakCount>7</maxWeakCount>
      <stageThreshold>-8.0372226238250732e-01</stageThreshold>
      <weakClassifiers>
        <_>
          <internalNodes>
            0 -1 173 -2.7291540056467056e-02</internalNodes>
          <leafValues>
            4.9532711505889893e-01 -5.6989246606826782e-01</leafValues></_>
        <_>
          <internalNodes>
            0 -1 34 3.7258680909872055e-02</internalNodes>
          <leafValues>
            -5.8806759119033813e-01 4.8383858799934387e-01</leafValues></_>
        <_>
          <internalNodes>
            0 -1 126 -8.0486699938774109e-02</internalNodes>
          <leafValues>
            1.5258280932903290e-01 -1.</leafValues></_>
        <_>
          <internalNodes>
            0 -1 96 1.4607238117605448e-03</internalNodes>
          <leafValues>
            1.3999867439270020e-01 -8.4981417655944824e-01</leafValues></_>
        <_>
          <internalNodes>
            0 -1 191 -1.0462515056133270e-03</internalNodes>
          <leafValues>
            -7.5872910022735596e-01 1.6667307913303375e-01</leafValues></_>
        <_>
          <internalNodes>
            0 -1 147 1.0732017457485199e-02</internalNodes>
          <leafValues>
            -2.9126548767089844e-01 6.2488281726837158e-01</leafValues></_>
        <_>
          <internalNodes>
            0 -1 48 2.4086973280645907e-04</internalNodes>
          <leafValues>
            1.8624873459339142e-01 -7.0692920684814453e-01</leafValues></_></weakClassifiers></_>
    <!-- stage 7 -->
    <_>
      <maxWeakCount>9</maxWeakCount>
      <stageThreshold>-6.2798333168029785e-01</stageThreshold>
      <weakClassifiers>
        <_>
          <internalNodes>
            0 -1 177 -2.0343663170933723e-02</internalNodes>
          <leafValues>
            4.2731276154518127e-01 -5.6069362163543701e-01</leafValues></_>
        <_>
          <internalNodes>
            0 -1 22 2.1047629415988922e-02</internalNodes>
          <leafValues>
            -6.8666195869445801e-01 2.7035489678382874e-01</leafValues></_>
        <_>
          <internalNodes>
            0 -1 154 -4.4717647135257721e-02</internalNodes>
          <leafValues>
            2.8809681534767151e-01 -5.7722973823547363e-01</leafValues></_>
        <_>
          <internalNodes>
            0 -1 75 7.8026102855801582e-03</internalNodes>
          <leafValues>
            -2.9040226340293884e-01 5.8886599540710449e-01</leafValues></_>
        <_>
          <internalNodes>
            0 -1 158 4.2130318470299244e-03</internalNodes>
          <leafValues>
            -2.9393327236175537e-01 5.5609363317489624e-01</leafValues></_>
        <_>
          <internalNodes>
            0 -1 33 4.9362324178218842e-02</internalNodes>
          <leafValues>
            -4.3835401535034180e-01 4.1625005006790161e-01</leafValues></_>
        <_>
          <internalNodes>
            0 -1 62 1.6990616917610168e-02</internalNodes>
          <leafValues>
            -2.8918561339378357e-01 6.2302201986312866e-01</leafValues></_>
        <_>
          <internalNodes>
            0 -1 95 -6.6401623189449310e-04</internalNodes>
          <leafValues>
            4.9912410974502563e-01 -3.2841148972511292e-01</leafValues></_>
        <_>
          <internalNodes>
            0 -1 18 -7.7772019430994987e-03</internalNodes>
          <leafValues>
            -5.1804006099700928e-01 2.8005790710449219e-01</leafValues></_></weakClassifiers></_>
    <!-- stage 8 -->
    <_>
      <maxWeakCount>11</maxWeakCount>
      <stageThreshold>-7.7894163131713867e-01</stageThreshold>
      <weakClassifiers>
        <_>
          <internalNodes>
            0 -1 185 -1.0980889201164246e-02</internalNodes>
          <leafValues>
            5.0857144594192505e-01 -3.9555555582046509e-01</leafValues></_>
        <_>
          <internalNodes>
            0 -1 30 -7.1206884458661079e-03</internalNodes>
          <leafValues>
            4.5668539404869080e-01 -2.7767530083656311e-01</leafValues></_>
        <_>
          <internalNodes>
            0 -1 101 1.9700359553098679e-02</internalNodes>
          <leafValues>
            -1.6429463028907776e-01 7.5699734687805176e-01</leafValues></_>
        <_>
          <internalNodes>
            0 -1 13 4.8053180798888206e-03</internalNodes>
          <leafValues>
            -2.7189463376998901e-01 5.3362601995468140e-01</leafValues></_>
        <_>
          <internalNodes>
            0 -1 7 -8.3457408472895622e-03</internalNodes>
          <leafValues>
            -8.2193696498870850e-01 1.8236222863197327e-01</leafValues></_>
        <_>
          <internalNodes>
            0 -1 100 -1.3889096677303314e-02</internalNodes>
          <leafValues>
            7.2617429494857788e-01 -1.9356679916381836e-01</leafValues></_>
        <_>
          <internalNodes>
            0 -1 168 3.4809845965355635e-04</internalNodes>
          <leafValues>
            -4.3346029520034790e-01 2.9236769676208496e-01</leafValues></_>
        <_>
          <internalNodes>
            0 -1 163 -2.9685024172067642e-02</internalNodes>
          <leafValues>
            4.8864886164665222e-01 -2.4849091470241547e-01</leafValues></_>
        <_>
          <internalNodes>
            0 -1 112 3.6893173819407821e-04</internalNodes>
          <leafValues>
            1.9355787336826324e-01 -6.9254058599472046e-01</leafValues></_>
        <_>
          <internalNodes>
            0 -1 53 -1.4600402209907770e-03</internalNodes>
          <leafValues>
            -6.1168968677520752e-01 2.3301936686038971e-01</leafValues></_>
        <_>
          <internalNodes>
            0 -1 37 5.0985097186639905e-04</internalNodes>
          <leafValues>
            1.1613434553146362e-01 -8.6591076850891113e-01</leafValues></_></weakClassifiers></_>
    <!-- stage 9 -->
    <_>
      <maxWeakCount>11</maxWeakCount>
      <stageThreshold>-1.0641126632690430e+00</stageThreshold>
      <weakClassifiers>
        <_>
          <internalNodes>
            0 -1 161 -4.1533954441547394e-02</internalNodes>
          <leafValues>
            3.3953487873077393e-01 -3.9459457993507385e-01</leafValues></_>
        <_>
          <internalNodes>
            0 -1 11 4.5682489871978760e-03</internalNodes>
          <leafValues>
            -3.9026394486427307e-01 3.2761287689208984e-01</leafValues></_>
        <_>
          <internalNodes>
            0 -1 15 -2.2843580227345228e-03</internalNodes>
          <leafValues>
            5.4388296604156494e-01 -2.4427087604999542e-01</leafValues></_>
        <_>
          <internalNodes>
            0 -1 51 -1.8479391932487488e-02</internalNodes>
          <leafValues>
            5.3130501508712769e-01 -2.3635837435722351e-01</leafValues></_>
        <_>
          <internalNodes>
            0 -1 140 -1.5445796772837639e-02</internalNodes>
          <leafValues>
            4.2724460363388062e-01 -2.5765383243560791e-01</leafValues></_>
        <_>
          <internalNodes>
            0 -1 159 1.6694938531145453e-03</internalNodes>
          <leafValues>
            -2.4707782268524170e-01 4.7682529687881470e-01</leafValues></_>
        <_>
          <internalNodes>
            0 -1 97 3.6663975333794951e-04</internalNodes>
          <leafValues>
            1.6668115556240082e-01 -6.7973577976226807e-01</leafValues></_>
        <_>
          <internalNodes>
            0 -1 1 6.5504312515258789e-02</internalNodes>
          <leafValues>
            -4.4879969954490662e-01 2.5975200533866882e-01</leafValues></_>
        <_>
          <internalNodes>
            0 -1 59 2.6971809566020966e-02</internalNodes>
          <leafValues>
            -1.9256645441055298e-01 7.6977622509002686e-01</leafValues></_>
        <_>
          <internalNodes>
            0 -1 157 -2.9632739722728729e-02</internalNodes>
          <leafValues>
            3.1695267558097839e-01 -6.4189910888671875e-01</leafValues></_>
        <_>
          <internalNodes>
            0 -1 124 2.5290081975981593e-04</internalNodes>
          <leafValues>
            1.7894062399864197e-01 -5.7630133628845215e-01</leafValues></_></weakClassifiers></_>
    <!-- stage 10 -->
    <_>
      <maxWeakCount>10</maxWeakCount>
      <stageThreshold>-6.9639188051223755e-01</stageThreshold>
      <weakClassifiers>
        <_>
          <internalNodes>
            0 -1 40 -2.0917106419801712e-02</internalNodes>
          <leafValues>
            5.1020407676696777e-01 -2.9644268751144409e-01</leafValues></_>
        <_>
          <internalNodes>
            0 -1 192 3.9940571878105402e-04</internalNodes>
          <leafValues>
            1.4696455001831055e-01 -8.4460794925689697e-01</leafValues></_>
        <_>
          <internalNodes>
            0 -1 9 9.5128342509269714e-02</internalNodes>
          <leafValues>
            -4.2410480976104736e-01 2.7541008591651917e-01</leafValues></_>
        <_>
          <internalNodes>
            0 -1 41 1.0051473230123520e-01</internalNodes>
          <leafValues>
            1.1857290565967560e-01 -8.4687834978103638e-01</leafValues></_>
        <_>
          <internalNodes>
            0 -1 122 -7.7732902718707919e-04</internalNodes>
          <leafValues>
            3.3601045608520508e-01 -3.2395198941230774e-01</leafValues></_>
        <_>
          <internalNodes>
            0 -1 29 3.2653000205755234e-02</internalNodes>
          <leafValues>
            -1.8318997323513031e-01 9.2327779531478882e-01</leafValues></_>
        <_>
          <internalNodes>
            0 -1 186 -1.9538225606083870e-03</internalNodes>
          <leafValues>
            3.1933170557022095e-01 -5.6095618009567261e-01</leafValues></_>
        <_>
          <internalNodes>
            0 -1 76 -4.5951129868626595e-03</internalNodes>
          <leafValues>
            4.1872310638427734e-01 -2.8544217348098755e-01</leafValues></_>
        <_>
          <internalNodes>
            0 -1 55 1.5175524167716503e-02</internalNodes>
          <leafValues>
            -2.7021154761314392e-01 4.8975270986557007e-01</leafValues></_>
        <_>
          <internalNodes>
            0 -1 12 1.9780857837758958e-04</internalNodes>
          <leafValues>
            1.8822672963142395e-01 -5.9610927104949951e-01</leafValues></_></weakClassifiers></_>
    <!-- stage 11 -->
    <_>
      <maxWeakCount>10</maxWeakCount>
      <stageThreshold>-7.9870867729187012e-01</stageThreshold>
      <weakClassifiers>
        <_>
          <internalNodes>
            0 -1 32 4.1604146361351013e-02</internalNodes>
          <leafValues>
            -4.0697672963142395e-01 3.0701753497123718e-01</leafValues></_>
        <_>
          <internalNodes>
            0 -1 135 1.2747620232403278e-02</internalNodes>
          <leafValues>
            -2.1096166968345642e-01 5.3325551748275757e-01</leafValues></_>
        <_>
          <internalNodes>
            0 -1 113 2.0435306942090392e-04</internalNodes>
          <leafValues>
            2.8997892141342163e-01 -3.5769367218017578e-01</leafValues></_>
        <_>
          <internalNodes>
            0 -1 187 -3.8354694843292236e-03</internalNodes>
          <leafValues>
            5.8894091844558716e-01 -1.9573256373405457e-01</leafValues></_>
        <_>
          <internalNodes>
            0 -1 162 -5.5722123943269253e-04</internalNodes>
          <leafValues>
            -4.6984380483627319e-01 2.6229161024093628e-01</leafValues></_>
        <_>
          <internalNodes>
            0 -1 138 8.9234739542007446e-02</internalNodes>
          <leafValues>
            7.5532831251621246e-02 -7.6193714141845703e-01</leafValues></_>
        <_>
          <internalNodes>
            0 -1 27 -2.6203235611319542e-03</internalNodes>
          <leafValues>
            -6.4972877502441406e-01 1.6125912964344025e-01</leafValues></_>
        <_>
          <internalNodes>
            0 -1 105 -6.2875580042600632e-03</internalNodes>
          <leafValues>
            4.1753602027893066e-01 -2.7929630875587463e-01</leafValues></_>
        <_>
          <internalNodes>
            0 -1 35 -6.5625982824712992e-04</internalNodes>
          <leafValues>
            -7.0498436689376831e-01 1.5626755356788635e-01</leafValues></_>
        <_>
          <internalNodes>
            0 -1 160 -8.4686666727066040e-02</internalNodes>
          <leafValues>
            1.5991641581058502e-01 -8.0696260929107666e-01</leafValues></_></weakClassifiers></_>
    <!-- stage 12 -->
    <_>
      <maxWeakCount>12</maxWeakCount>
      <stageThreshold>-7.7433484792709351e-01</stageThreshold>
      <weakClassifiers>
        <_>
          <internalNodes>
            0 -1 182 -3.3204930368810892e-03</internalNodes>
          <leafValues>
            6.2962961196899414e-01 -2.3287671804428101e-01</leafValues></_>
        <_>
          <internalNodes>
            0 -1 42 6.3474015332758427e-03</internalNodes>
          <leafValues>
            -2.1240448951721191e-01 5.8143115043640137e-01</leafValues></_>
        <_>
          <internalNodes>
            0 -1 120 9.5830124337226152e-04</internalNodes>
          <leafValues>
            -3.4903678297996521e-01 3.1890761852264404e-01</leafValues></_>
        <_>
          <internalNodes>
            0 -1 194 -2.0109219476580620e-02</internalNodes>
          <leafValues>
            -6.5237963199615479e-01 1.4167083799839020e-01</leafValues></_>
        <_>
          <internalNodes>
            0 -1 116 6.6874953918159008e-03</internalNodes>
          <leafValues>
            -1.6470551490783691e-01 5.6717300415039062e-01</leafValues></_>
        <_>
          <internalNodes>
            0 -1 107 -1.8540932796895504e-03</internalNodes>
          <leafValues>
            4.6744745969772339e-01 -2.2911082208156586e-01</leafValues></_>
        <_>
          <internalNodes>
            0 -1 99 4.2291164398193359e-02</internalNodes>
          <leafValues>
            1.6135258972644806e-01 -6.8022960424423218e-01</leafValues></_>
        <_>
          <internalNodes>
            0 -1 36 3.9190061390399933e-02</internalNodes>
          <leafValues>
            -3.6750328540802002e-01 3.1358322501182556e-01</leafValues></_>
        <_>
          <internalNodes>
            0 -1 88 -8.5057091200724244e-04</internalNodes>
          <leafValues>
            5.3025585412979126e-01 -2.2966617345809937e-01</leafValues></_>
        <_>
          <internalNodes>
            0 -1 69 4.7510467469692230e-02</internalNodes>
          <leafValues>
            -1.7668093740940094e-01 5.7072997093200684e-01</leafValues></_>
        <_>
          <internalNodes>
            0 -1 58 -1.3772025704383850e-02</internalNodes>
          <leafValues>
            6.4489459991455078e-01 -1.4337426424026489e-01</leafValues></_>
        <_>
          <internalNodes>
            0 -1 169 -1.7955355346202850e-02</internalNodes>
          <leafValues>
            3.5120892524719238e-01 -3.2103016972541809e-01</leafValues></_></weakClassifiers></_>
    <!-- stage 13 -->
    <_>
      <maxWeakCount>9</maxWeakCount>
      <stageThreshold>-6.3063257932662964e-01</stageThreshold>
      <weakClassifiers>
        <_>
          <internalNodes>
            0 -1 188 9.5742549747228622e-03</internalNodes>
          <leafValues>
            -1.6149067878723145e-01 6.6666668653488159e-01</leafValues></_>
        <_>
          <internalNodes>
            0 -1 68 -7.0542376488447189e-03</internalNodes>
          <leafValues>
            4.5585298538208008e-01 -2.0135465264320374e-01</leafValues></_>
        <_>
          <internalNodes>
            0 -1 132 -7.9311558511108160e-04</internalNodes>
          <leafValues>
            2.7092117071151733e-01 -3.5086476802825928e-01</leafValues></_>
        <_>
          <internalNodes>
            0 -1 65 -1.8978759180754423e-04</internalNodes>
          <leafValues>
            -7.3072403669357300e-01 1.6301396489143372e-01</leafValues></_>
        <_>
          <internalNodes>
            0 -1 102 -1.2302729301154613e-03</internalNodes>
          <leafValues>
            -8.0777364969253540e-01 1.4514547586441040e-01</leafValues></_>
        <_>
          <internalNodes>
            0 -1 71 3.0589260160923004e-02</internalNodes>
          <leafValues>
            -1.2121468037366867e-01 8.3139115571975708e-01</leafValues></_>
        <_>
          <internalNodes>
            0 -1 63 -4.4117150828242302e-03</internalNodes>
          <leafValues>
            7.8709685802459717e-01 -1.2563613057136536e-01</leafValues></_>
        <_>
          <internalNodes>
            0 -1 143 -9.5139220356941223e-02</internalNodes>
          <leafValues>
            2.0476524531841278e-01 -5.2603381872177124e-01</leafValues></_>
        <_>
          <internalNodes>
            0 -1 170 -6.1799352988600731e-04</internalNodes>
          <leafValues>
            -5.4974824190139771e-01 2.2172826528549194e-01</leafValues></_></weakClassifiers></_>
    <!-- stage 14 -->
    <_>
      <maxWeakCount>12</maxWeakCount>
      <stageThreshold>-7.5002521276473999e-01</stageThreshold>
      <weakClassifiers>
        <_>
          <internalNodes>
            0 -1 0 1.9507052376866341e-02</internalNodes>
          <leafValues>
            -5.3846156597137451e-01 2.9961088299751282e-01</leafValues></_>
        <_>
          <internalNodes>
            0 -1 104 5.7489615865051746e-03</internalNodes>
          <leafValues>
            -1.8107299506664276e-01 5.2193146944046021e-01</leafValues></_>
        <_>
          <internalNodes>
            0 -1 44 -5.2124233916401863e-03</internalNodes>
          <leafValues>
            4.4292041659355164e-01 -2.2841624915599823e-01</leafValues></_>
        <_>
          <internalNodes>
            0 -1 38 6.5036960877478123e-03</internalNodes>
          <leafValues>
            -3.7281170487403870e-01 2.3137733340263367e-01</leafValues></_>
        <_>
          <internalNodes>
            0 -1 184 6.7891669459640980e-04</internalNodes>
          <leafValues>
            1.3875989615917206e-01 -9.6769875288009644e-01</leafValues></_>
        <_>
          <internalNodes>
            0 -1 85 6.4488588832318783e-03</internalNodes>
          <leafValues>
            -2.6518508791923523e-01 4.3548712134361267e-01</leafValues></_>
        <_>
          <internalNodes>
            0 -1 119 -5.3675856906920671e-04</internalNodes>
          <leafValues>
            5.7915139198303223e-01 -1.7983134090900421e-01</leafValues></_>
        <_>
          <internalNodes>
            0 -1 91 2.1967855282127857e-03</internalNodes>
          <leafValues>
            1.4214012026786804e-01 -7.8530466556549072e-01</leafValues></_>
        <_>
          <internalNodes>
            0 -1 128 -1.0357712162658572e-03</internalNodes>
          <leafValues>
            4.2018771171569824e-01 -3.0007356405258179e-01</leafValues></_>
        <_>
          <internalNodes>
            0 -1 109 4.0495104622095823e-04</internalNodes>
          <leafValues>
            -2.5563958287239075e-01 4.2225167155265808e-01</leafValues></_>
        <_>
          <internalNodes>
            0 -1 142 -6.6977646201848984e-04</internalNodes>
          <leafValues>
            -6.9084423780441284e-01 1.6377793252468109e-01</leafValues></_>
        <_>
          <internalNodes>
            0 -1 133 2.5149563953164034e-05</internalNodes>
          <leafValues>
            2.8871646523475647e-01 -3.5682106018066406e-01</leafValues></_></weakClassifiers></_>
    <!-- stage 15 -->
    <_>
      <maxWeakCount>15</maxWeakCount>
      <stageThreshold>-6.6043597459793091e-01</stageThreshold>
      <weakClassifiers>
        <_>
          <internalNodes>
            0 -1 171 -4.1531495749950409e-02</internalNodes>
          <leafValues>
            2.9515418410301208e-01 -3.8728323578834534e-01</leafValues></_>
        <_>
          <internalNodes>
            0 -1 5 -2.1278532221913338e-03</internalNodes>
          <leafValues>
            -7.0545101165771484e-01 1.1749934405088425e-01</leafValues></_>
        <_>
          <internalNodes>
            0 -1 77 -5.1317233592271805e-02</internalNodes>
          <leafValues>
            -5.8540499210357666e-01 1.8463681638240814e-01</leafValues></_>
        <_>
          <internalNodes>
            0 -1 46 2.4397606030106544e-03</internalNodes>
          <leafValues>
            -3.5354059934616089e-01 3.2034519314765930e-01</leafValues></_>
        <_>
          <internalNodes>
            0 -1 152 -1.0676523670554161e-03</internalNodes>
          <leafValues>
            -6.8399059772491455e-01 1.1674500256776810e-01</leafValues></_>
        <_>
          <internalNodes>
            0 -1 175 2.3626275360584259e-03</internalNodes>
          <leafValues>
            -1.2090358138084412e-01 8.5399061441421509e-01</leafValues></_>
        <_>
          <internalNodes>
            0 -1 4 1.5059986617416143e-03</internalNodes>
          <leafValues>
            1.6315795481204987e-01 -6.6601473093032837e-01</leafValues></_>
        <_>
          <internalNodes>
            0 -1 106 -4.5952671207487583e-03</internalNodes>
          <leafValues>
            5.1730114221572876e-01 -2.0593136548995972e-01</leafValues></_>
        <_>
          <internalNodes>
            0 -1 56 7.6644076034426689e-03</internalNodes>
          <leafValues>
            -2.1335503458976746e-01 5.4198181629180908e-01</leafValues></_>
        <_>
          <internalNodes>
            0 -1 98 9.4346879050135612e-03</internalNodes>
          <leafValues>
            3.9520150423049927e-01 -2.4030433595180511e-01</leafValues></_>
        <_>
          <internalNodes>
            0 -1 78 9.2181260697543621e-04</internalNodes>
          <leafValues>
            -2.9662370681762695e-01 3.5213389992713928e-01</leafValues></_>
        <_>
          <internalNodes>
            0 -1 193 -7.1876309812068939e-04</internalNodes>
          <leafValues>
            -6.7049789428710938e-01 1.5551710128784180e-01</leafValues></_>
        <_>
          <internalNodes>
            0 -1 181 -1.9793291576206684e-03</internalNodes>
          <leafValues>
            7.3184072971343994e-01 -1.4138607680797577e-01</leafValues></_>
        <_>
          <internalNodes>
            0 -1 94 -2.8267211746424437e-04</internalNodes>
          <leafValues>
            -5.9928995370864868e-01 1.7607161402702332e-01</leafValues></_>
        <_>
          <internalNodes>
            0 -1 57 2.4360574781894684e-02</internalNodes>
          <leafValues>
            -1.3194353878498077e-01 7.9394191503524780e-01</leafValues></_></weakClassifiers></_>
    <!-- stage 16 -->
    <_>
      <maxWeakCount>13</maxWeakCount>
      <stageThreshold>-9.0546846389770508e-01</stageThreshold>
      <weakClassifiers>
        <_>
          <internalNodes>
            0 -1 176 -7.1499170735478401e-03</internalNodes>
          <leafValues>
            4.1772150993347168e-01 -2.7272728085517883e-01</leafValues></_>
        <_>
          <internalNodes>
            0 -1 2 1.2515386333689094e-03</internalNodes>
          <leafValues>
            -4.0651363134384155e-01 2.4295072257518768e-01</leafValues></_>
        <_>
          <internalNodes>
            0 -1 86 -1.3406383804976940e-03</internalNodes>
          <leafValues>
            7.7974086999893188e-01 -1.3382077217102051e-01</leafValues></_>
        <_>
          <internalNodes>
            0 -1 136 -1.9171781605109572e-03</internalNodes>
          <leafValues>
            -6.2513583898544312e-01 1.5816415846347809e-01</leafValues></_>
        <_>
          <internalNodes>
            0 -1 127 -3.8791713304817677e-03</internalNodes>
          <leafValues>
            4.2760181427001953e-01 -2.2052945196628571e-01</leafValues></_>
        <_>
          <internalNodes>
            0 -1 129 8.2258274778723717e-04</internalNodes>
          <leafValues>
            1.8445822596549988e-01 -5.4182982444763184e-01</leafValues></_>
        <_>
          <internalNodes>
            0 -1 144 -4.5859848614782095e-04</internalNodes>
          <leafValues>
            3.8839507102966309e-01 -2.5362893939018250e-01</leafValues></_>
        <_>
          <internalNodes>
            0 -1 83 7.2629190981388092e-05</internalNodes>
          <leafValues>
            -3.8364309072494507e-01 2.4602204561233521e-01</leafValues></_>
        <_>
          <internalNodes>
            0 -1 130 1.2140185572206974e-03</internalNodes>
          <leafValues>
            1.9385278224945068e-01 -6.3747602701187134e-01</leafValues></_>
        <_>
          <internalNodes>
            0 -1 43 2.6053141802549362e-02</internalNodes>
          <leafValues>
            -2.2500246763229370e-01 5.5134236812591553e-01</leafValues></_>
        <_>
          <internalNodes>
            0 -1 24 -6.7051509395241737e-03</internalNodes>
          <leafValues>
            5.5435776710510254e-01 -1.5936635434627533e-01</leafValues></_>
        <_>
          <internalNodes>
            0 -1 81 8.3823315799236298e-04</internalNodes>
          <leafValues>
            1.7416593432426453e-01 -5.7097154855728149e-01</leafValues></_>
        <_>
          <internalNodes>
            0 -1 90 1.2193856760859489e-02</internalNodes>
          <leafValues>
            -2.0900887250900269e-01 5.0711745023727417e-01</leafValues></_></weakClassifiers></_>
    <!-- stage 17 -->
    <_>
      <maxWeakCount>12</maxWeakCount>
      <stageThreshold>-7.9954367876052856e-01</stageThreshold>
      <weakClassifiers>
        <_>
          <internalNodes>
            0 -1 16 9.9349562078714371e-03</internalNodes>
          <leafValues>
            -2.2656250000000000e-01 4.0277779102325439e-01</leafValues></_>
        <_>
          <internalNodes>
            0 -1 111 1.0096072219312191e-03</internalNodes>
          <leafValues>
            2.8340154886245728e-01 -2.8593271970748901e-01</leafValues></_>
        <_>
          <internalNodes>
            0 -1 10 1.3713747262954712e-01</internalNodes>
          <leafValues>
            -3.3682152628898621e-01 2.3784877359867096e-01</leafValues></_>
        <_>
          <internalNodes>
            0 -1 131 2.3505543358623981e-03</internalNodes>
          <leafValues>
            -2.7293777465820312e-01 4.0847444534301758e-01</leafValues></_>
        <_>
          <internalNodes>
            0 -1 45 1.3457934372127056e-02</internalNodes>
          <leafValues>
            -9.9129758775234222e-02 6.1655026674270630e-01</leafValues></_>
        <_>
          <internalNodes>
            0 -1 84 2.2119528148323298e-03</internalNodes>
          <leafValues>
            7.4700750410556793e-02 -9.0398484468460083e-01</leafValues></_>
        <_>
          <internalNodes>
            0 -1 103 -8.8321545626968145e-04</internalNodes>
          <leafValues>
            4.1684889793395996e-01 -2.4772331118583679e-01</leafValues></_>
        <_>
          <internalNodes>
            0 -1 115 -5.6851148838177323e-04</internalNodes>
          <leafValues>
            -7.8770452737808228e-01 1.4994177222251892e-01</leafValues></_>
        <_>
          <internalNodes>
            0 -1 153 4.6770981862209737e-04</internalNodes>
          <leafValues>
            -2.4006868898868561e-01 4.2423388361930847e-01</leafValues></_>
        <_>
          <internalNodes>
            0 -1 50 -1.3719680719077587e-03</internalNodes>
          <leafValues>
            -8.3134490251541138e-01 1.5230341255664825e-01</leafValues></_>
        <_>
          <internalNodes>
            0 -1 93 -2.4262680672109127e-03</internalNodes>
          <leafValues>
            7.9270023107528687e-01 -1.5676639974117279e-01</leafValues></_>
        <_>
          <internalNodes>
            0 -1 164 5.6252274662256241e-03</internalNodes>
          <leafValues>
            -1.8120777606964111e-01 5.5926471948623657e-01</leafValues></_></weakClassifiers></_>
    <!-- stage 18 -->
    <_>
      <maxWeakCount>15</maxWeakCount>
      <stageThreshold>-7.6180011034011841e-01</stageThreshold>
      <weakClassifiers>
        <_>
          <internalNodes>
            0 -1 167 -1.7408696934580803e-02</internalNodes>
          <leafValues>
            7.0588237047195435e-01 -1.4457830786705017e-01</leafValues></_>
        <_>
          <internalNodes>
            0 -1 64 -1.5003878797870129e-04</internalNodes>
          <leafValues>
            -4.4360995292663574e-01 1.9619430601596832e-01</leafValues></_>
        <_>
          <internalNodes>
            0 -1 66 1.1339439079165459e-03</internalNodes>
          <leafValues>
            3.9111256599426270e-02 -9.5354610681533813e-01</leafValues></_>
        <_>
          <internalNodes>
            0 -1 79 -2.6481915265321732e-03</internalNodes>
          <leafValues>
            5.1663345098495483e-01 -1.9806872308254242e-01</leafValues></_>
        <_>
          <internalNodes>
            0 -1 121 -1.3597945217043161e-03</internalNodes>
          <leafValues>
            5.0688326358795166e-01 -1.3660714030265808e-01</leafValues></_>
        <_>
          <internalNodes>
            0 -1 17 7.2121093980967999e-03</internalNodes>
          <leafValues>
            -2.6608958840370178e-01 4.6410933136940002e-01</leafValues></_>
        <_>
          <internalNodes>
            0 -1 114 1.1953227221965790e-03</internalNodes>
          <leafValues>
            1.8705798685550690e-01 -7.6155841350555420e-01</leafValues></_>
        <_>
          <internalNodes>
            0 -1 190 -1.2585914228111506e-03</internalNodes>
          <leafValues>
            6.2324410676956177e-01 -1.7873391509056091e-01</leafValues></_>
        <_>
          <internalNodes>
            0 -1 52 4.4748522341251373e-03</internalNodes>
          <leafValues>
            -1.3912521302700043e-01 6.4231824874877930e-01</leafValues></_>
        <_>
          <internalNodes>
            0 -1 137 5.9179347008466721e-03</internalNodes>
          <leafValues>
            1.8203933537006378e-01 -5.7402783632278442e-01</leafValues></_>
        <_>
          <internalNodes>
            0 -1 117 5.1502864807844162e-03</internalNodes>
          <leafValues>
            9.1111108660697937e-02 -1.</leafValues></_>
        <_>
          <internalNodes>
            0 -1 156 6.3095921650528908e-03</internalNodes>
          <leafValues>
            -1.5560390055179596e-01 8.2533091306686401e-01</leafValues></_>
        <_>
          <internalNodes>
            0 -1 134 -8.8441431522369385e-02</internalNodes>
          <leafValues>
            6.8017739057540894e-01 -1.1660349369049072e-01</leafValues></_>
        <_>
          <internalNodes>
            0 -1 139 2.4456349201500416e-03</internalNodes>
          <leafValues>
            1.1132711917161942e-01 -9.5172101259231567e-01</leafValues></_>
        <_>
          <internalNodes>
            0 -1 151 -1.5266207978129387e-02</internalNodes>
          <leafValues>
            -9.1758513450622559e-01 7.1895085275173187e-02</leafValues></_></weakClassifiers></_>
    <!-- stage 19 -->
    <_>
      <maxWeakCount>13</maxWeakCount>
      <stageThreshold>-7.7258414030075073e-01</stageThreshold>
      <weakClassifiers>
        <_>
          <internalNodes>
            0 -1 74 2.2702987771481276e-03</internalNodes>
          <leafValues>
            7.2386056184768677e-02 -1.</leafValues></_>
        <_>
          <internalNodes>
            0 -1 70 -5.9301187284290791e-03</internalNodes>
          <leafValues>
            4.2652425169944763e-01 -2.0284742116928101e-01</leafValues></_>
        <_>
          <internalNodes>
            0 -1 141 8.9045278728008270e-03</internalNodes>
          <leafValues>
            -1.1693765968084335e-01 7.0496922731399536e-01</leafValues></_>
        <_>
          <internalNodes>
            0 -1 3 1.4393511810339987e-04</internalNodes>
          <leafValues>
            1.5283329784870148e-01 -5.9088730812072754e-01</leafValues></_>
        <_>
          <internalNodes>
            0 -1 125 -6.8972306326031685e-03</internalNodes>
          <leafValues>
            1.4839060604572296e-01 -5.4855763912200928e-01</leafValues></_>
        <_>
          <internalNodes>
            0 -1 61 2.8743420261889696e-04</internalNodes>
          <leafValues>
            1.3706320524215698e-01 -6.8368226289749146e-01</leafValues></_>
        <_>
          <internalNodes>
            0 -1 183 -2.4430232588201761e-04</internalNodes>
          <leafValues>
            2.6489225029945374e-01 -3.2231342792510986e-01</leafValues></_>
        <_>
          <internalNodes>
            0 -1 80 8.2440744154155254e-04</internalNodes>
          <leafValues>
            1.3135084509849548e-01 -6.2345337867736816e-01</leafValues></_>
        <_>
          <internalNodes>
            0 -1 67 1.1646191705949605e-04</internalNodes>
          <leafValues>
            -3.6104342341423035e-01 2.5928261876106262e-01</leafValues></_>
        <_>
          <internalNodes>
            0 -1 92 -7.5707153882831335e-04</internalNodes>
          <leafValues>
            4.3537321686744690e-01 -2.5764602422714233e-01</leafValues></_>
        <_>
          <internalNodes>
            0 -1 155 -6.0030602617189288e-04</internalNodes>
          <leafValues>
            -4.9080687761306763e-01 2.0770771801471710e-01</leafValues></_>
        <_>
          <internalNodes>
            0 -1 82 -5.4164789617061615e-03</internalNodes>
          <leafValues>
            -7.1839809417724609e-01 1.2331751734018326e-01</leafValues></_>
        <_>
          <internalNodes>
            0 -1 73 1.0363144800066948e-02</internalNodes>
          <leafValues>
            2.1366922557353973e-01 -4.8123741149902344e-01</leafValues></_></weakClassifiers></_></stages>
  <features>
    <_>
      <rects>
        <_>
          0 0 4 21 -1.</_>
        <_>
          2 0 2 21 2.</_></rects>
      <tilted>0</tilted></_>
    <_>
      <rects>
        <_>
          0 0 6 30 -1.</_>
        <_>
          3 0 3 30 2.</_></rects>
      <tilted>0</tilted></_>
    <_>
      <rects>
        <_>
          0 0 10 1 -1.</_>
        <_>
          5 0 5 1 2.</_></rects>
      <tilted>0</tilted></_>
    <_>
      <rects>
        <_>
          0 1 1 2 -1.</_>
        <_>
          0 2 1 1 2.</_></rects>
      <tilted>0</tilted></_>
    <_>
      <rects>
        <_>
          0 2 2 6 -1.</_>
        <_>
          0 5 2 3 2.</_></rects>
      <tilted>0</tilted></_>
    <_>
      <rects>
        <_>
          0 2 6 4 -1.</_>
        <_>
          0 4 6 2 2.</_></rects>
      <tilted>0</tilted></_>
    <_>
      <rects>
        <_>
          0 4 6 24 -1.</_>
        <_>
          3 4 3 24 2.</_></rects>
      <tilted>0</tilted></_>
    <_>
      <rects>
        <_>
          0 5 16 2 -1.</_>
        <_>
          8 5 8 2 2.</_></rects>
      <tilted>0</tilted></_>
    <_>
      <rects>
        <_>
          0 6 4 25 -1.</_>
        <_>
          2 6 2 25 2.</_></rects>
      <tilted>0</tilted></_>
    <_>
      <rects>
        <_>
          0 6 16 19 -1.</_>
        <_>
          8 6 8 19 2.</_></rects>
      <tilted>0</tilted></_>
    <_>
      <rects>
        <_>
          0 7 12 23 -1.</_>
        <_>
          6 7 6 23 2.</_></rects>
      <tilted>0</tilted></_>
    <_>
      <rects>
        <_>
          0 7 18 1 -1.</_>
        <_>
          9 7 9 1 2.</_></rects>
      <tilted>0</tilted></_>
    <_>
      <rects>
        <_>
          0 8 2 2 -1.</_>
        <_>
          0 9 2 1 2.</_></rects>
      <tilted>0</tilted></_>
    <_>
      <rects>
        <_>
          0 8 4 2 -1.</_>
        <_>
          2 8 2 2 2.</_></rects>
      <tilted>0</tilted></_>
    <_>
      <rects>
        <_>
          0 8 6 20 -1.</_>
        <_>
          3 8 3 20 2.</_></rects>
      <tilted>0</tilted></_>
    <_>
      <rects>
        <_>
          0 10 2 16 -1.</_>
        <_>
          0 10 1 8 2.</_>
        <_>
          1 18 1 8 2.</_></rects>
      <tilted>0</tilted></_>
    <_>
      <rects>
        <_>
          0 10 4 3 -1.</_>
        <_>
          2 10 2 3 2.</_></rects>
      <tilted>0</tilted></_>
    <_>
      <rects>
        <_>
          0 10 25 6 -1.</_>
        <_>
          0 13 25 3 2.</_></rects>
      <tilted>0</tilted></_>
    <_>
      <rects>
        <_>
          0 11 1 3 -1.</_>
        <_>
          0 12 1 1 2.</_></rects>
      <tilted>0</tilted></_>
    <_>
      <rects>
        <_>
          0 11 4 5 -1.</_>
        <_>
          2 11 2 5 2.</_></rects>
      <tilted>0</tilted></_>
    <_>
      <rects>
        <_>
          0 11 8 21 -1.</_>
        <_>
          4 11 4 21 2.</_></rects>
      <tilted>0</tilted></_>
    <_>
      <rects>
        <_>
          0 11 12 5 -1.</_>
        <_>
          6 11 6 5 2.</_></rects>
      <tilted>0</tilted></_>
    <_>
      <rects>
        <_>
          0 12 6 14 -1.</_>
        <_>
          3 12 3 14 2.</_></rects>
      <tilted>0</tilted></_>
    <_>
      <rects>
        <_>
          0 13 4 1 -1.</_>
        <_>
          2 13 2 1 2.</_></rects>
      <tilted>0</tilted></_>
    <_>
      <rects>
        <_>
          0 13 6 14 -1.</_>
        <_>
          0 13 3 7 2.</_>
        <_>
          3 20 3 7 2.</_></rects>
      <tilted>0</tilted></_>
    <_>
      <rects>
        <_>
          0 13 6 14 -1.</_>
        <_>
          3 13 3 14 2.</_></rects>
      <tilted>0</tilted></_>
    <_>
      <rects>
        <_>
          0 15 1 12 -1.</_>
        <_>
          0 19 1 4 2.</_></rects>
      <tilted>0</tilted></_>
    <_>
      <rects>
        <_>
          0 15 1 16 -1.</_>
        <_>
          0 23 1 8 2.</_></rects>
      <tilted>0</tilted></_>
    <_>
      <rects>
        <_>
          0 15 6 9 -1.</_>
        <_>
          3 15 3 9 2.</_></rects>
      <tilted>0</tilted></_>
    <_>
      <rects>
        <_>
          0 16 30 8 -1.</_>
        <_>
          0 20 30 4 2.</_></rects>
      <tilted>0</tilted></_>
    <_>
      <rects>
        <_>
          0 17 32 8 -1.</_>
        <_>
          0 21 32 4 2.</_></rects>
      <tilted>0</tilted></_>
    <_>
      <rects>
        <_>
          0 19 6 10 -1.</_>
        <_>
          3 19 3 10 2.</_></rects>
      <tilted>0</tilted></_>
    <_>
      <rects>
        <_>
          0 20 6 11 -1.</_>
        <_>
          3 20 3 11 2.</_></rects>
      <tilted>0</tilted></_>
    <_>
      <rects>
        <_>
          0 21 24 11 -1.</_>
        <_>
          12 21 12 11 2.</_></rects>
      <tilted>0</tilted></_>
    <_>
      <rects>
        <_>
          0 22 8 10 -1.</_>
        <_>
          4 22 4 10 2.</_></rects>
      <tilted>0</tilted></_>
    <_>
      <rects>
        <_>
          0 24 8 2 -1.</_>
        <_>
          0 24 4 1 2.</_>
        <_>
          4 25 4 1 2.</_></rects>
      <tilted>0</tilted></_>
    <_>
      <rects>
        <_>
          0 24 24 5 -1.</_>
        <_>
          12 24 12 5 2.</_></rects>
      <tilted>0</tilted></_>
    <_>
      <rects>
        <_>
          0 28 4 2 -1.</_>
        <_>
          0 29 4 1 2.</_></rects>
      <tilted>0</tilted></_>
    <_>
      <rects>
        <_>
          0 30 24 1 -1.</_>
        <_>
          12 30 12 1 2.</_></rects>
      <tilted>0</tilted></_>
    <_>
      <rects>
        <_>
          0 31 10 1 -1.</_>
        <_>
          5 31 5 1 2.</_></rects>
      <tilted>0</tilted></_>
    <_>
      <rects>
        <_>
          1 10 3 22 -1.</_>
        <_>
          1 21 3 11 2.</_></rects>
      <tilted>0</tilted></_>
    <_>
      <rects>
        <_>
          1 10 10 10 -1.</_>
        <_>
          6 10 5 10 2.</_></rects>
      <tilted>0</tilted></_>
    <_>
      <rects>
        <_>
          1 12 2 6 -1.</_>
        <_>
          2 12 1 6 2.</_></rects>
      <tilted>0</tilted></_>
    <_>
      <rects>
        <_>
          1 14 6 18 -1.</_>
        <_>
          1 14 3 9 2.</_>
        <_>
          4 23 3 9 2.</_></rects>
      <tilted>0</tilted></_>
    <_>
      <rects>
        <_>
          1 16 24 6 -1.</_>
        <_>
          1 19 24 3 2.</_></rects>
      <tilted>0</tilted></_>
    <_>
      <rects>
        <_>
          1 18 6 14 -1.</_>
        <_>
          1 18 3 7 2.</_>
        <_>
          4 25 3 7 2.</_></rects>
      <tilted>0</tilted></_>
    <_>
      <rects>
        <_>
          1 18 8 10 -1.</_>
        <_>
          1 18 4 5 2.</_>
        <_>
          5 23 4 5 2.</_></rects>
      <tilted>0</tilted></_>
    <_>
      <rects>
        <_>
          1 18 12 10 -1.</_>
        <_>
          1 18 6 5 2.</_>
        <_>
          7 23 6 5 2.</_></rects>
      <tilted>0</tilted></_>
    <_>
      <rects>
        <_>
          1 23 2 2 -1.</_>
        <_>
          1 24 2 1 2.</_></rects>
      <tilted>0</tilted></_>
    <_>
      <rects>
        <_>
          1 27 6 4 -1.</_>
        <_>
          4 27 3 4 2.</_></rects>
      <tilted>0</tilted></_>
    <_>
      <rects>
        <_>
          2 0 12 2 -1.</_>
        <_>
          2 0 6 1 2.</_>
        <_>
          8 1 6 1 2.</_></rects>
      <tilted>0</tilted></_>
    <_>
      <rects>
        <_>
          2 0 30 2 -1.</_>
        <_>
          17 0 15 2 2.</_></rects>
      <tilted>0</tilted></_>
    <_>
      <rects>
        <_>
          2 1 2 5 -1.</_>
        <_>
          3 1 1 5 2.</_></rects>
      <tilted>0</tilted></_>
    <_>
      <rects>
        <_>
          2 1 13 10 -1.</_>
        <_>
          2 6 13 5 2.</_></rects>
      <tilted>0</tilted></_>
    <_>
      <rects>
        <_>
          2 7 21 18 -1.</_>
        <_>
          2 16 21 9 2.</_></rects>
      <tilted>0</tilted></_>
    <_>
      <rects>
        <_>
          2 12 6 20 -1.</_>
        <_>
          2 12 3 10 2.</_>
        <_>
          5 22 3 10 2.</_></rects>
      <tilted>0</tilted></_>
    <_>
      <rects>
        <_>
          2 13 22 6 -1.</_>
        <_>
          2 16 22 3 2.</_></rects>
      <tilted>0</tilted></_>
    <_>
      <rects>
        <_>
          2 14 4 16 -1.</_>
        <_>
          2 14 2 8 2.</_>
        <_>
          4 22 2 8 2.</_></rects>
      <tilted>0</tilted></_>
    <_>
      <rects>
        <_>
          2 17 28 8 -1.</_>
        <_>
          2 17 14 4 2.</_>
        <_>
          16 21 14 4 2.</_></rects>
      <tilted>0</tilted></_>
    <_>
      <rects>
        <_>
          2 17 28 10 -1.</_>
        <_>
          2 17 14 5 2.</_>
        <_>
          16 22 14 5 2.</_></rects>
      <tilted>0</tilted></_>
    <_>
      <rects>
        <_>
          2 24 29 8 -1.</_>
        <_>
          2 28 29 4 2.</_></rects>
      <tilted>0</tilted></_>
    <_>
      <rects>
        <_>
          2 30 2 2 -1.</_>
        <_>
          2 31 2 1 2.</_></rects>
      <tilted>0</tilted></_>
    <_>
      <rects>
        <_>
          3 0 26 8 -1.</_>
        <_>
          3 4 26 4 2.</_></rects>
      <tilted>0</tilted></_>
    <_>
      <rects>
        <_>
          3 1 2 24 -1.</_>
        <_>
          3 1 1 12 2.</_>
        <_>
          4 13 1 12 2.</_></rects>
      <tilted>0</tilted></_>
    <_>
      <rects>
        <_>
          3 4 2 2 -1.</_>
        <_>
          3 5 2 1 2.</_></rects>
      <tilted>0</tilted></_>
    <_>
      <rects>
        <_>
          3 5 1 2 -1.</_>
        <_>
          3 6 1 1 2.</_></rects>
      <tilted>0</tilted></_>
    <_>
      <rects>
        <_>
          3 7 6 2 -1.</_>
        <_>
          3 7 3 1 2.</_>
        <_>
          6 8 3 1 2.</_></rects>
      <tilted>0</tilted></_>
    <_>
      <rects>
        <_>
          3 9 15 2 -1.</_>
        <_>
          3 10 15 1 2.</_></rects>
      <tilted>0</tilted></_>
    <_>
      <rects>
        <_>
          3 13 29 8 -1.</_>
        <_>
          3 17 29 4 2.</_></rects>
      <tilted>0</tilted></_>
    <_>
      <rects>
        <_>
          3 15 6 17 -1.</_>
        <_>
          6 15 3 17 2.</_></rects>
      <tilted>0</tilted></_>
    <_>
      <rects>
        <_>
          3 16 25 6 -1.</_>
        <_>
          3 19 25 3 2.</_></rects>
      <tilted>0</tilted></_>
    <_>
      <rects>
        <_>
          3 17 24 10 -1.</_>
        <_>
          3 22 24 5 2.</_></rects>
      <tilted>0</tilted></_>
    <_>
      <rects>
        <_>
          4 0 26 12 -1.</_>
        <_>
          4 6 26 6 2.</_></rects>
      <tilted>0</tilted></_>
    <_>
      <rects>
        <_>
          4 1 10 4 -1.</_>
        <_>
          9 1 5 4 2.</_></rects>
      <tilted>0</tilted></_>
    <_>
      <rects>
        <_>
          4 2 2 4 -1.</_>
        <_>
          4 4 2 2 2.</_></rects>
      <tilted>0</tilted></_>
    <_>
      <rects>
        <_>
          4 6 1 24 -1.</_>
        <_>
          4 18 1 12 2.</_></rects>
      <tilted>0</tilted></_>
    <_>
      <rects>
        <_>
          4 6 4 26 -1.</_>
        <_>
          4 6 2 13 2.</_>
        <_>
          6 19 2 13 2.</_></rects>
      <tilted>0</tilted></_>
    <_>
      <rects>
        <_>
          4 10 12 16 -1.</_>
        <_>
          10 10 6 16 2.</_></rects>
      <tilted>0</tilted></_>
    <_>
      <rects>
        <_>
          4 10 14 4 -1.</_>
        <_>
          4 12 14 2 2.</_></rects>
      <tilted>0</tilted></_>
    <_>
      <rects>
        <_>
          4 18 16 4 -1.</_>
        <_>
          4 18 8 2 2.</_>
        <_>
          12 20 8 2 2.</_></rects>
      <tilted>0</tilted></_>
    <_>
      <rects>
        <_>
          4 28 6 2 -1.</_>
        <_>
          4 28 3 1 2.</_>
        <_>
          7 29 3 1 2.</_></rects>
      <tilted>0</tilted></_>
    <_>
      <rects>
        <_>
          4 29 12 2 -1.</_>
        <_>
          4 29 6 1 2.</_>
        <_>
          10 30 6 1 2.</_></rects>
      <tilted>0</tilted></_>
    <_>
      <rects>
        <_>
          5 0 16 1 -1.</_>
        <_>
          13 0 8 1 2.</_></rects>
      <tilted>0</tilted></_>
    <_>
      <rects>
        <_>
          5 1 1 4 -1.</_>
        <_>
          5 3 1 2 2.</_></rects>
      <tilted>0</tilted></_>
    <_>
      <rects>
        <_>
          5 4 8 2 -1.</_>
        <_>
          5 5 8 1 2.</_></rects>
      <tilted>0</tilted></_>
    <_>
      <rects>
        <_>
          5 9 22 8 -1.</_>
        <_>
          5 9 11 4 2.</_>
        <_>
          16 13 11 4 2.</_></rects>
      <tilted>0</tilted></_>
    <_>
      <rects>
        <_>
          5 10 2 8 -1.</_>
        <_>
          5 10 1 4 2.</_>
        <_>
          6 14 1 4 2.</_></rects>
      <tilted>0</tilted></_>
    <_>
      <rects>
        <_>
          5 21 20 1 -1.</_>
        <_>
          15 21 10 1 2.</_></rects>
      <tilted>0</tilted></_>
    <_>
      <rects>
        <_>
          5 28 4 1 -1.</_>
        <_>
          7 28 2 1 2.</_></rects>
      <tilted>0</tilted></_>
    <_>
      <rects>
        <_>
          6 0 9 14 -1.</_>
        <_>
          6 7 9 7 2.</_></rects>
      <tilted>0</tilted></_>
    <_>
      <rects>
        <_>
          6 1 19 6 -1.</_>
        <_>
          6 4 19 3 2.</_></rects>
      <tilted>0</tilted></_>
    <_>
      <rects>
        <_>
          6 5 26 2 -1.</_>
        <_>
          6 5 13 1 2.</_>
        <_>
          19 6 13 1 2.</_></rects>
      <tilted>0</tilted></_>
    <_>
      <rects>
        <_>
          6 6 6 8 -1.</_>
        <_>
          6 10 6 4 2.</_></rects>
      <tilted>0</tilted></_>
    <_>
      <rects>
        <_>
          6 17 25 2 -1.</_>
        <_>
          6 18 25 1 2.</_></rects>
      <tilted>0</tilted></_>
    <_>
      <rects>
        <_>
          6 25 2 2 -1.</_>
        <_>
          6 25 1 1 2.</_>
        <_>
          7 26 1 1 2.</_></rects>
      <tilted>0</tilted></_>
    <_>
      <rects>
        <_>
          6 25 2 7 -1.</_>
        <_>
          7 25 1 7 2.</_></rects>
      <tilted>0</tilted></_>
    <_>
      <rects>
        <_>
          6 30 18 2 -1.</_>
        <_>
          6 30 9 1 2.</_>
        <_>
          15 31 9 1 2.</_></rects>
      <tilted>0</tilted></_>
    <_>
      <rects>
        <_>
          7 0 4 2 -1.</_>
        <_>
          7 0 2 1 2.</_>
        <_>
          9 1 2 1 2.</_></rects>
      <tilted>0</tilted></_>
    <_>
      <rects>
        <_>
          7 1 20 24 -1.</_>
        <_>
          7 13 20 12 2.</_></rects>
      <tilted>0</tilted></_>
    <_>
      <rects>
        <_>
          7 5 8 18 -1.</_>
        <_>
          11 5 4 18 2.</_></rects>
      <tilted>0</tilted></_>
    <_>
      <rects>
        <_>
          7 10 6 22 -1.</_>
        <_>
          7 10 3 11 2.</_>
        <_>
          10 21 3 11 2.</_></rects>
      <tilted>0</tilted></_>
    <_>
      <rects>
        <_>
          7 17 22 8 -1.</_>
        <_>
          7 21 22 4 2.</_></rects>
      <tilted>0</tilted></_>
    <_>
      <rects>
        <_>
          7 30 10 2 -1.</_>
        <_>
          7 31 10 1 2.</_></rects>
      <tilted>0</tilted></_>
    <_>
      <rects>
        <_>
          8 9 1 8 -1.</_>
        <_>
          8 13 1 4 2.</_></rects>
      <tilted>0</tilted></_>
    <_>
      <rects>
        <_>
          8 14 15 6 -1.</_>
        <_>
          8 17 15 3 2.</_></rects>
      <tilted>0</tilted></_>
    <_>
      <rects>
        <_>
          8 15 24 8 -1.</_>
        <_>
          8 15 12 4 2.</_>
        <_>
          20 19 12 4 2.</_></rects>
      <tilted>0</tilted></_>
    <_>
      <rects>
        <_>
          8 18 10 8 -1.</_>
        <_>
          8 18 5 4 2.</_>
        <_>
          13 22 5 4 2.</_></rects>
      <tilted>0</tilted></_>
    <_>
      <rects>
        <_>
          9 7 16 6 -1.</_>
        <_>
          9 7 8 3 2.</_>
        <_>
          17 10 8 3 2.</_></rects>
      <tilted>0</tilted></_>
    <_>
      <rects>
        <_>
          9 16 1 3 -1.</_>
        <_>
          9 17 1 1 2.</_></rects>
      <tilted>0</tilted></_>
    <_>
      <rects>
        <_>
          9 16 11 2 -1.</_>
        <_>
          9 17 11 1 2.</_></rects>
      <tilted>0</tilted></_>
    <_>
      <rects>
        <_>
          10 3 18 21 -1.</_>
        <_>
          10 10 18 7 2.</_></rects>
      <tilted>0</tilted></_>
    <_>
      <rects>
        <_>
          10 22 14 10 -1.</_>
        <_>
          10 27 14 5 2.</_></rects>
      <tilted>0</tilted></_>
    <_>
      <rects>
        <_>
          10 29 4 2 -1.</_>
        <_>
          10 29 2 1 2.</_>
        <_>
          12 30 2 1 2.</_></rects>
      <tilted>0</tilted></_>
    <_>
      <rects>
        <_>
          10 30 12 2 -1.</_>
        <_>
          10 31 12 1 2.</_></rects>
      <tilted>0</tilted></_>
    <_>
      <rects>
        <_>
          11 1 10 2 -1.</_>
        <_>
          11 1 5 1 2.</_>
        <_>
          16 2 5 1 2.</_></rects>
      <tilted>0</tilted></_>
    <_>
      <rects>
        <_>
          11 2 2 2 -1.</_>
        <_>
          11 3 2 1 2.</_></rects>
      <tilted>0</tilted></_>
    <_>
      <rects>
        <_>
          11 9 16 6 -1.</_>
        <_>
          11 12 16 3 2.</_></rects>
      <tilted>0</tilted></_>
    <_>
      <rects>
        <_>
          11 13 2 6 -1.</_>
        <_>
          11 16 2 3 2.</_></rects>
      <tilted>0</tilted></_>
    <_>
      <rects>
        <_>
          11 13 16 16 -1.</_>
        <_>
          11 13 8 8 2.</_>
        <_>
          19 21 8 8 2.</_></rects>
      <tilted>0</tilted></_>
    <_>
      <rects>
        <_>
          11 16 1 4 -1.</_>
        <_>
          11 18 1 2 2.</_></rects>
      <tilted>0</tilted></_>
    <_>
      <rects>
        <_>
          12 1 5 6 -1.</_>
        <_>
          12 4 5 3 2.</_></rects>
      <tilted>0</tilted></_>
    <_>
      <rects>
        <_>
          12 12 13 4 -1.</_>
        <_>
          12 14 13 2 2.</_></rects>
      <tilted>0</tilted></_>
    <_>
      <rects>
        <_>
          12 18 8 8 -1.</_>
        <_>
          12 22 8 4 2.</_></rects>
      <tilted>0</tilted></_>
    <_>
      <rects>
        <_>
          12 20 18 10 -1.</_>
        <_>
          12 25 18 5 2.</_></rects>
      <tilted>0</tilted></_>
    <_>
      <rects>
        <_>
          12 27 3 2 -1.</_>
        <_>
          12 28 3 1 2.</_></rects>
      <tilted>0</tilted></_>
    <_>
      <rects>
        <_>
          12 28 1 3 -1.</_>
        <_>
          12 29 1 1 2.</_></rects>
      <tilted>0</tilted></_>
    <_>
      <rects>
        <_>
          13 0 5 9 -1.</_>
        <_>
          13 3 5 3 2.</_></rects>
      <tilted>0</tilted></_>
    <_>
      <rects>
        <_>
          13 10 15 10 -1.</_>
        <_>
          13 15 15 5 2.</_></rects>
      <tilted>0</tilted></_>
    <_>
      <rects>
        <_>
          13 13 16 4 -1.</_>
        <_>
          13 13 8 2 2.</_>
        <_>
          21 15 8 2 2.</_></rects>
      <tilted>0</tilted></_>
    <_>
      <rects>
        <_>
          14 0 4 1 -1.</_>
        <_>
          16 0 2 1 2.</_></rects>
      <tilted>0</tilted></_>
    <_>
      <rects>
        <_>
          14 0 16 2 -1.</_>
        <_>
          14 0 8 1 2.</_>
        <_>
          22 1 8 1 2.</_></rects>
      <tilted>0</tilted></_>
    <_>
      <rects>
        <_>
          14 19 8 6 -1.</_>
        <_>
          14 19 4 3 2.</_>
        <_>
          18 22 4 3 2.</_></rects>
      <tilted>0</tilted></_>
    <_>
      <rects>
        <_>
          14 21 7 6 -1.</_>
        <_>
          14 24 7 3 2.</_></rects>
      <tilted>0</tilted></_>
    <_>
      <rects>
        <_>
          14 30 10 2 -1.</_>
        <_>
          14 30 5 1 2.</_>
        <_>
          19 31 5 1 2.</_></rects>
      <tilted>0</tilted></_>
    <_>
      <rects>
        <_>
          15 8 16 24 -1.</_>
        <_>
          15 8 8 12 2.</_>
        <_>
          23 20 8 12 2.</_></rects>
      <tilted>0</tilted></_>
    <_>
      <rects>
        <_>
          15 14 14 12 -1.</_>
        <_>
          15 14 7 6 2.</_>
        <_>
          22 20 7 6 2.</_></rects>
      <tilted>0</tilted></_>
    <_>
      <rects>
        <_>
          15 28 10 4 -1.</_>
        <_>
          15 28 5 2 2.</_>
        <_>
          20 30 5 2 2.</_></rects>
      <tilted>0</tilted></_>
    <_>
      <rects>
        <_>
          16 4 14 2 -1.</_>
        <_>
          23 4 7 2 2.</_></rects>
      <tilted>0</tilted></_>
    <_>
      <rects>
        <_>
          16 4 14 21 -1.</_>
        <_>
          23 4 7 21 2.</_></rects>
      <tilted>0</tilted></_>
    <_>
      <rects>
        <_>
          16 5 6 1 -1.</_>
        <_>
          19 5 3 1 2.</_></rects>
      <tilted>0</tilted></_>
    <_>
      <rects>
        <_>
          16 6 16 18 -1.</_>
        <_>
          16 6 8 9 2.</_>
        <_>
          24 15 8 9 2.</_></rects>
      <tilted>0</tilted></_>
    <_>
      <rects>
        <_>
          17 16 9 6 -1.</_>
        <_>
          17 19 9 3 2.</_></rects>
      <tilted>0</tilted></_>
    <_>
      <rects>
        <_>
          17 30 8 2 -1.</_>
        <_>
          17 30 4 1 2.</_>
        <_>
          21 31 4 1 2.</_></rects>
      <tilted>0</tilted></_>
    <_>
      <rects>
        <_>
          18 0 14 32 -1.</_>
        <_>
          25 0 7 32 2.</_></rects>
      <tilted>0</tilted></_>
    <_>
      <rects>
        <_>
          18 22 2 10 -1.</_>
        <_>
          18 22 1 5 2.</_>
        <_>
          19 27 1 5 2.</_></rects>
      <tilted>0</tilted></_>
    <_>
      <rects>
        <_>
          20 2 12 18 -1.</_>
        <_>
          26 2 6 18 2.</_></rects>
      <tilted>0</tilted></_>
    <_>
      <rects>
        <_>
          20 8 12 24 -1.</_>
        <_>
          26 8 6 24 2.</_></rects>
      <tilted>0</tilted></_>
    <_>
      <rects>
        <_>
          20 9 8 22 -1.</_>
        <_>
          20 9 4 11 2.</_>
        <_>
          24 20 4 11 2.</_></rects>
      <tilted>0</tilted></_>
    <_>
      <rects>
        <_>
          20 19 12 3 -1.</_>
        <_>
          26 19 6 3 2.</_></rects>
      <tilted>0</tilted></_>
    <_>
      <rects>
        <_>
          20 24 12 7 -1.</_>
        <_>
          26 24 6 7 2.</_></rects>
      <tilted>0</tilted></_>
    <_>
      <rects>
        <_>
          20 28 12 4 -1.</_>
        <_>
          24 28 4 4 2.</_></rects>
      <tilted>0</tilted></_>
    <_>
      <rects>
        <_>
          21 20 4 10 -1.</_>
        <_>
          21 25 4 5 2.</_></rects>
      <tilted>0</tilted></_>
    <_>
      <rects>
        <_>
          22 4 10 2 -1.</_>
        <_>
          22 4 5 1 2.</_>
        <_>
          27 5 5 1 2.</_></rects>
      <tilted>0</tilted></_>
    <_>
      <rects>
        <_>
          22 15 1 4 -1.</_>
        <_>
          22 17 1 2 2.</_></rects>
      <tilted>0</tilted></_>
    <_>
      <rects>
        <_>
          22 17 10 15 -1.</_>
        <_>
          27 17 5 15 2.</_></rects>
      <tilted>0</tilted></_>
    <_>
      <rects>
        <_>
          22 28 6 2 -1.</_>
        <_>
          22 29 6 1 2.</_></rects>
      <tilted>0</tilted></_>
    <_>
      <rects>
        <_>
          24 5 4 10 -1.</_>
        <_>
          24 5 2 5 2.</_>
        <_>
          26 10 2 5 2.</_></rects>
      <tilted>0</tilted></_>
    <_>
      <rects>
        <_>
          24 12 8 17 -1.</_>
        <_>
          28 12 4 17 2.</_></rects>
      <tilted>0</tilted></_>
    <_>
      <rects>
        <_>
          24 15 4 16 -1.</_>
        <_>
          24 15 2 8 2.</_>
        <_>
          26 23 2 8 2.</_></rects>
      <tilted>0</tilted></_>
    <_>
      <rects>
        <_>
          24 17 4 8 -1.</_>
        <_>
          24 17 2 4 2.</_>
        <_>
          26 21 2 4 2.</_></rects>
      <tilted>0</tilted></_>
    <_>
      <rects>
        <_>
          24 17 5 9 -1.</_>
        <_>
          24 20 5 3 2.</_></rects>
      <tilted>0</tilted></_>
    <_>
      <rects>
        <_>
          24 24 8 8 -1.</_>
        <_>
          28 24 4 8 2.</_></rects>
      <tilted>0</tilted></_>
    <_>
      <rects>
        <_>
          25 7 7 2 -1.</_>
        <_>
          25 8 7 1 2.</_></rects>
      <tilted>0</tilted></_>
    <_>
      <rects>
        <_>
          25 7 7 22 -1.</_>
        <_>
          25 18 7 11 2.</_></rects>
      <tilted>0</tilted></_>
    <_>
      <rects>
        <_>
          25 13 3 10 -1.</_>
        <_>
          25 18 3 5 2.</_></rects>
      <tilted>0</tilted></_>
    <_>
      <rects>
        <_>
          26 8 6 22 -1.</_>
        <_>
          29 8 3 22 2.</_></rects>
      <tilted>0</tilted></_>
    <_>
      <rects>
        <_>
          26 14 6 18 -1.</_>
        <_>
          29 14 3 18 2.</_></rects>
      <tilted>0</tilted></_>
    <_>
      <rects>
        <_>
          26 18 4 14 -1.</_>
        <_>
          26 18 2 7 2.</_>
        <_>
          28 25 2 7 2.</_></rects>
      <tilted>0</tilted></_>
    <_>
      <rects>
        <_>
          27 2 2 10 -1.</_>
        <_>
          27 7 2 5 2.</_></rects>
      <tilted>0</tilted></_>
    <_>
      <rects>
        <_>
          27 18 4 12 -1.</_>
        <_>
          29 18 2 12 2.</_></rects>
      <tilted>0</tilted></_>
    <_>
      <rects>
        <_>
          28 1 2 6 -1.</_>
        <_>
          28 4 2 3 2.</_></rects>
      <tilted>0</tilted></_>
    <_>
      <rects>
        <_>
          28 2 4 28 -1.</_>
        <_>
          30 2 2 28 2.</_></rects>
      <tilted>0</tilted></_>
    <_>
      <rects>
        <_>
          28 4 2 22 -1.</_>
        <_>
          28 15 2 11 2.</_></rects>
      <tilted>0</tilted></_>
    <_>
      <rects>
        <_>
          28 5 4 20 -1.</_>
        <_>
          30 5 2 20 2.</_></rects>
      <tilted>0</tilted></_>
    <_>
      <rects>
        <_>
          28 6 4 17 -1.</_>
        <_>
          30 6 2 17 2.</_></rects>
      <tilted>0</tilted></_>
    <_>
      <rects>
        <_>
          28 10 2 8 -1.</_>
        <_>
          28 10 1 4 2.</_>
        <_>
          29 14 1 4 2.</_></rects>
      <tilted>0</tilted></_>
    <_>
      <rects>
        <_>
          28 11 4 3 -1.</_>
        <_>
          30 11 2 3 2.</_></rects>
      <tilted>0</tilted></_>
    <_>
      <rects>
        <_>
          28 11 4 16 -1.</_>
        <_>
          30 11 2 16 2.</_></rects>
      <tilted>0</tilted></_>
    <_>
      <rects>
        <_>
          28 18 4 4 -1.</_>
        <_>
          30 18 2 4 2.</_></rects>
      <tilted>0</tilted></_>
    <_>
      <rects>
        <_>
          28 19 4 5 -1.</_>
        <_>
          30 19 2 5 2.</_></rects>
      <tilted>0</tilted></_>
    <_>
      <rects>
        <_>
          28 28 4 2 -1.</_>
        <_>
          28 29 4 1 2.</_></rects>
      <tilted>0</tilted></_>
    <_>
      <rects>
        <_>
          29 15 2 8 -1.</_>
        <_>
          29 15 1 4 2.</_>
        <_>
          30 19 1 4 2.</_></rects>
      <tilted>0</tilted></_>
    <_>
      <rects>
        <_>
          29 17 1 10 -1.</_>
        <_>
          29 22 1 5 2.</_></rects>
      <tilted>0</tilted></_>
    <_>
      <rects>
        <_>
          29 20 2 4 -1.</_>
        <_>
          29 22 2 2 2.</_></rects>
      <tilted>0</tilted></_>
    <_>
      <rects>
        <_>
          29 26 3 2 -1.</_>
        <_>
          29 27 3 1 2.</_></rects>
      <tilted>0</tilted></_>
    <_>
      <rects>
        <_>
          30 0 2 26 -1.</_>
        <_>
          31 0 1 26 2.</_></rects>
      <tilted>0</tilted></_>
    <_>
      <rects>
        <_>
          30 4 2 17 -1.</_>
        <_>
          31 4 1 17 2.</_></rects>
      <tilted>0</tilted></_>
    <_>
      <rects>
        <_>
          30 5 2 4 -1.</_>
        <_>
          31 5 1 4 2.</_></rects>
      <tilted>0</tilted></_>
    <_>
      <rects>
        <_>
          30 5 2 26 -1.</_>
        <_>
          30 5 1 13 2.</_>
        <_>
          31 18 1 13 2.</_></rects>
      <tilted>0</tilted></_>
    <_>
      <rects>
        <_>
          30 10 2 8 -1.</_>
        <_>
          31 10 1 8 2.</_></rects>
      <tilted>0</tilted></_>
    <_>
      <rects>
        <_>
          30 16 2 1 -1.</_>
        <_>
          31 16 1 1 2.</_></rects>
      <tilted>0</tilted></_>
    <_>
      <rects>
        <_>
          30 27 2 4 -1.</_>
        <_>
          30 29 2 2 2.</_></rects>
      <tilted>0</tilted></_>
    <_>
      <rects>
        <_>
          30 30 2 2 -1.</_>
        <_>
          30 31 2 1 2.</_></rects>
      <tilted>0</tilted></_>
    <_>
      <rects>
        <_>
          31 23 1 6 -1.</_>
        <_>
          31 26 1 3 2.</_></rects>
      <tilted>0</tilted></_>
    <_>
      <rects>
        <_>
          31 25 1 6 -1.</_>
        <_>
          31 27 1 2 2.</_></rects>
      <tilted>0</tilted></_></features></cascade>
</opencv_storage>
