<?xml version="1.0"?>
<opencv_storage>
<stage11>
  <maxWeakCount>10</maxWeakCount>
  <stageThreshold>-7.9870867729187012e-01</stageThreshold>
  <weakClassifiers>
    <_>
      <internalNodes>
        0 -1 26952 4.1604146361351013e-02</internalNodes>
      <leafValues>
        -4.0697672963142395e-01 3.0701753497123718e-01</leafValues></_>
    <_>
      <internalNodes>
        0 -1 376810 1.2747620232403278e-02</internalNodes>
      <leafValues>
        -2.1096166968345642e-01 5.3325551748275757e-01</leafValues></_>
    <_>
      <internalNodes>
        0 -1 289632 2.0435306942090392e-04</internalNodes>
      <leafValues>
        2.8997892141342163e-01 -3.5769367218017578e-01</leafValues></_>
    <_>
      <internalNodes>
        0 -1 508545 -3.8354694843292236e-03</internalNodes>
      <leafValues>
        5.8894091844558716e-01 -1.9573256373405457e-01</leafValues></_>
    <_>
      <internalNodes>
        0 -1 487971 -5.5722123943269253e-04</internalNodes>
      <leafValues>
        -4.6984380483627319e-01 2.6229161024093628e-01</leafValues></_>
    <_>
      <internalNodes>
        0 -1 385797 8.9234739542007446e-02</internalNodes>
      <leafValues>
        7.5532831251621246e-02 -7.6193714141845703e-01</leafValues></_>
    <_>
      <internalNodes>
        0 -1 22456 -2.6203235611319542e-03</internalNodes>
      <leafValues>
        -6.4972877502441406e-01 1.6125912964344025e-01</leafValues></_>
    <_>
      <internalNodes>
        0 -1 239913 -6.2875580042600632e-03</internalNodes>
      <leafValues>
        4.1753602027893066e-01 -2.7929630875587463e-01</leafValues></_>
    <_>
      <internalNodes>
        0 -1 29386 -6.5625982824712992e-04</internalNodes>
      <leafValues>
        -7.0498436689376831e-01 1.5626755356788635e-01</leafValues></_>
    <_>
      <internalNodes>
        0 -1 483719 -8.4686666727066040e-02</internalNodes>
      <leafValues>
        1.5991641581058502e-01 -8.0696260929107666e-01</leafValues></_></weakClassifiers></stage11>
</opencv_storage>
