<?xml version="1.0"?>
<opencv_storage>
<stage2>
  <maxWeakCount>5</maxWeakCount>
  <stageThreshold>-1.0943648815155029e+00</stageThreshold>
  <weakClassifiers>
    <_>
      <internalNodes>
        0 -1 26200 3.4311115741729736e-02</internalNodes>
      <leafValues>
        -6.1085975170135498e-01 7.5418996810913086e-01</leafValues></_>
    <_>
      <internalNodes>
        0 -1 495780 -4.7661229968070984e-02</internalNodes>
      <leafValues>
        7.0383989810943604e-01 -5.6252604722976685e-01</leafValues></_>
    <_>
      <internalNodes>
        0 -1 18135 3.6486629396677017e-03</internalNodes>
      <leafValues>
        -6.6062015295028687e-01 3.7869629263877869e-01</leafValues></_>
    <_>
      <internalNodes>
        0 -1 447529 -5.6650480255484581e-03</internalNodes>
      <leafValues>
        3.1665182113647461e-01 -7.9074257612228394e-01</leafValues></_>
    <_>
      <internalNodes>
        0 -1 31278 2.2894437424838543e-03</internalNodes>
      <leafValues>
        -5.7882755994796753e-01 4.2298930883407593e-01</leafValues></_></weakClassifiers></stage2>
</opencv_storage>
